{"learner":{"attributes":{},"feature_names":[],"feature_types":[],"gradient_booster":{"model":{"cats":{"enc":[],"feature_segments":[],"sorted_idx":[]},"gbtree_model_param":{"num_parallel_tree":"1","num_trees":"100"},"iteration_indptr":[0,1,2,3,4,5,6,7,8,9,10,11,12,13,14,15,16,17,18,19,20,21,22,23,24,25,26,27,28,29,30,31,32,33,34,35,36,37,38,39,40,41,42,43,44,45,46,47,48,49,50,51,52,53,54,55,56,57,58,59,60,61,62,63,64,65,66,67,68,69,70,71,72,73,74,75,76,77,78,79,80,81,82,83,84,85,86,87,88,89,90,91,92,93,94,95,96,97,98,99,100],"tree_info":[0,0,0,0,0,0,0,0,0,0,0,0,0,0,0,0,0,0,0,0,0,0,0,0,0,0,0,0,0,0,0,0,0,0,0,0,0,0,0,0,0,0,0,0,0,0,0,0,0,0,0,0,0,0,0,0,0,0,0,0,0,0,0,0,0,0,0,0,0,0,0,0,0,0,0,0,0,0,0,0,0,0,0,0,0,0,0,0,0,0,0,0,0,0,0,0,0,0,0,0],"trees":[{"base_weights":[6.644518E-3,9.847328E-1,-7.426901E-1,1.3422819E0,5.043478E-1,-3.0971128E-1,-1.2703583E0,1.4961832E0,2E-1,6.226415E-1,-7.2727275E-1,-7.462686E-2,-8.3760685E-1,-1.3089701E0,2.0000001E-2,7.844828E-2,4.117647E-2,4.5454547E-2,-2.727273E-2,1.6949152E-3,4.1401275E-2,2.0000001E-2,-6.25E-2,-6.1068702E-3,6.0000002E-2,-3.4482758E-3,-5.2173913E-2,2.0000001E-2,-6.745763E-2],"categories":[],"categories_nodes":[],"categories_segments":[],"categories_sizes":[],"default_left":[0,0,0,0,0,0,0,0,0,0,0,0,0,0,0,0,0,0,0,0,0,0,0,0,0,0,0,0,0],"id":0,"left_children":[1,3,5,7,9,11,13,15,17,19,21,23,25,27,-1,-1,-1,-1,-1,-1,-1,-1,-1,-1,-1,-1,-1,-1,-1],"loss_changes":[2.2133888E2,2.1823746E1,3.8674774E1,1.279776E1,8.8301735E0,1.1758019E1,5.47361E0,1.9146118E0,5.781818E0,6.3806057E0,3.740909E0,4.203965E0,4.556593E0,5.707123E0,0E0,0E0,0E0,0E0,0E0,0E0,0E0,0E0,0E0,0E0,0E0,0E0,0E0,0E0,0E0],"parents":[2147483647,0,0,1,1,2,2,3,3,4,4,5,5,6,6,7,7,8,8,9,9,10,10,11,11,12,12,13,13],"right_children":[2,4,6,8,10,12,14,16,18,20,22,24,26,28,-1,-1,-1,-1,-1,-1,-1,-1,-1,-1,-1,-1,-1,-1,-1],"split_conditions":[-1.4362192E-1,-7.212384E-1,8.166654E-1,1.2083938E0,1.5405266E0,8.4606117E-1,1.0908712E1,5.2035168E-2,-1.0894688E0,4.8303896E-1,4.7341272E-1,3.914313E0,-9.324196E-1,4.8659506E-1,2.0000001E-2,7.844828E-2,4.117647E-2,4.5454547E-2,-2.727273E-2,1.6949152E-3,4.1401275E-2,2.0000001E-2,-6.25E-2,-6.1068702E-3,6.0000002E-2,-3.4482758E-3,-5.2173913E-2,2.0000001E-2,-6.745763E-2],"split_indices":[18,18,18,4,4,7,5,7,18,27,11,2,4,17,0,0,0,0,0,0,0,0,0,0,0,0,0,0,0],"split_type":[0,0,0,0,0,0,0,0,0,0,0,0,0,0,0,0,0,0,0,0,0,0,0,0,0,0,0,0,0],"sum_hessian":[3E2,1.3E2,1.7E2,7.35E1,5.65E1,9.425E1,7.575E1,6.45E1,9E0,5.2E1,4.5E0,6.6E1,2.825E1,7.425E1,1.5E0,5.7E1,7.5E0,4.5E0,4.5E0,1.375E1,3.825E1,1.5E0,3E0,6.45E1,1.5E0,6.25E0,2.2E1,1.5E0,7.275E1],"tree_param":{"num_deleted":"0","num_feature":"34","num_nodes":"29","size_leaf_vector":"1"}},{"base_weights":[6.681251E-3,8.19855E-1,-8.2276624E-1,1.2447498E0,3.404829E-1,-3.7950915E-1,-1.2439566E0,1.389978E0,2.5335097E-1,4.9306074E-1,-1.2304432E0,4.5633444E-1,-4.698756E-1,-1.281934E0,1.940118E-2,8.256265E-2,5.6667466E-2,5.909243E-2,-8.67633E-3,6.0808826E-2,1.765222E-2,-8.605141E-3,-7.83216E-2,-2.2875896E-2,4.5668386E-2,-7.915503E-3,-4.053523E-2,-4.1225534E-2,-7.101723E-2],"categories":[],"categories_nodes":[],"categories_segments":[],"categories_sizes":[],"default_left":[0,0,0,0,0,0,0,0,0,0,0,0,0,0,0,0,0,0,0,0,0,0,0,0,0,0,0,0,0],"id":1,"left_children":[1,3,5,7,9,11,13,15,17,19,21,23,25,27,-1,-1,-1,-1,-1,-1,-1,-1,-1,-1,-1,-1,-1,-1,-1],"loss_changes":[2.035506E2,3.0614204E1,2.7420685E1,1.1224602E1,1.8098782E1,5.82143E0,5.2182693E0,2.8160248E0,4.7617507E0,6.377718E0,2.1294718E0,3.654733E0,7.037757E0,3.5563736E0,0E0,0E0,0E0,0E0,0E0,0E0,0E0,0E0,0E0,0E0,0E0,0E0,0E0,0E0,0E0],"parents":[2147483647,0,0,1,1,2,2,3,3,4,4,5,5,6,6,7,7,8,8,9,9,10,10,11,11,12,12,13,13],"right_children":[2,4,6,8,10,12,14,16,18,20,22,24,26,28,-1,-1,-1,-1,-1,-1,-1,-1,-1,-1,-1,-1,-1,-1,-1],"split_conditions":[3.6855704E-1,-3.13956E-1,1.0510701E0,1.2083938E0,1.4827645E0,-1.278993E0,1.0908712E1,-1.0913622E0,-1.9806713E0,-1.0226731E0,-3.746685E-1,3.4013185E-1,6.87256E-1,-6.038968E-1,1.940118E-2,8.256265E-2,5.6667466E-2,5.909243E-2,-8.67633E-3,6.0808826E-2,1.765222E-2,-8.605141E-3,-7.83216E-2,-2.2875896E-2,4.5668386E-2,-7.915503E-3,-4.053523E-2,-4.1225534E-2,-7.101723E-2],"split_indices":[24,24,24,4,4,4,5,7,7,4,18,18,7,4,0,0,0,0,0,0,0,0,0,0,0,0,0,0,0],"split_type":[0,0,0,0,0,0,0,0,0,0,0,0,0,0,0,0,0,0,0,0,0,0,0,0,0,0,0,0,0],"sum_hessian":[2.9978665E2,1.5138419E2,1.4840247E2,7.940573E1,7.197846E1,7.323334E1,7.516912E1,6.890929E1,1.0496438E1,6.6231766E1,5.7466946E0,6.7499485E0,6.648339E1,7.3669266E1,1.49985E0,3.1452738E1,3.745655E1,2.7488499E0,7.7475886E0,9.497236E0,5.673453E1,1.7491682E0,3.9975266E0,2.2499807E0,4.4999676E0,3.5497852E1,3.0985538E1,1.872925E1,5.4940018E1],"tree_param":{"num_deleted":"0","num_feature":"34","num_nodes":"29","size_leaf_vector":"1"}},{"base_weights":[6.571146E-3,7.816357E-1,-7.8386724E-1,1.1887462E0,3.2353494E-1,-3.610723E-1,-1.1866219E0,1.227416E0,-3.4865644E-2,-1.1301709E-1,4.8486096E-1,-1.129007E-1,-6.327956E-1,-1.2231628E0,1.88225E-2,7.3408194E-2,4.9394447E-2,2.477499E-2,-1.9189734E-2,3.3813253E-2,-1.075153E-2,4.718251E-2,-1.0812133E-2,-3.894284E-2,-7.0153794E-4,1.2532475E-2,-6.258706E-2],"categories":[],"categories_nodes":[],"categories_segments":[],"categories_sizes":[],"default_left":[0,0,0,0,0,0,0,0,0,0,0,0,0,0,0,0,0,0,0,0,0,0,0,0,0,0,0],"id":2,"left_children":[1,3,5,7,9,11,13,15,-1,17,19,21,23,25,-1,-1,-1,-1,-1,-1,-1,-1,-1,-1,-1,-1,-1],"loss_changes":[1.8454094E2,2.797905E1,2.496685E1,6.7015533E0,5.191431E0,4.931842E0,4.797882E0,3.0995789E0,0E0,3.5665596E0,7.3049145E0,4.5709925E0,3.1703568E0,3.4491653E0,0E0,0E0,0E0,0E0,0E0,0E0,0E0,0E0,0E0,0E0,0E0,0E0,0E0],"parents":[2147483647,0,0,1,1,2,2,3,3,4,4,5,5,6,6,7,7,9,9,10,10,11,11,12,12,13,13],"right_children":[2,4,6,8,10,12,14,16,-1,18,20,22,24,26,-1,-1,-1,-1,-1,-1,-1,-1,-1,-1,-1,-1,-1],"split_conditions":[3.6855704E-1,-3.13956E-1,1.0510701E0,5.4393735E0,4.8303896E-1,6.87256E-1,1.0908712E1,-1.0913622E0,-3.4865644E-2,4.8659506E-1,6.87256E-1,4.4715557E-1,1.2739433E0,4.8659506E-1,1.88225E-2,7.3408194E-2,4.9394447E-2,2.477499E-2,-1.9189734E-2,3.3813253E-2,-1.075153E-2,4.718251E-2,-1.0812133E-2,-3.894284E-2,-7.0153794E-4,1.2532475E-2,-6.258706E-2],"split_indices":[24,24,24,2,27,7,5,7,0,17,7,22,6,17,0,0,0,0,0,0,0,0,0,0,0,0,0],"split_type":[0,0,0,0,0,0,0,0,0,0,0,0,0,0,0,0,0,0,0,0,0,0,0,0,0,0,0],"sum_hessian":[2.9922202E2,1.5108586E2,1.4813614E2,7.91505E1,7.193537E1,7.31953E1,7.494084E1,7.790248E1,1.2480153E0,1.9491192E1,5.244418E1,3.8995365E1,3.4199936E1,7.344143E1,1.499418E0,3.629405E1,4.160843E1,5.746716E0,1.3744475E1,4.1208393E1,1.1235784E1,2.7498648E0,3.62455E1,2.7459347E1,6.740587E0,1.249187E0,7.219224E1],"tree_param":{"num_deleted":"0","num_feature":"34","num_nodes":"27","size_leaf_vector":"1"}},{"base_weights":[6.5360162E-3,7.454515E-1,-7.4704707E-1,1.0535505E0,1.8751734E-1,-3.4330654E-1,-1.1332443E0,1.1829001E0,1.9404882E-1,4.3987384E-1,-9.991309E-1,-7.7295594E-2,-1.0490894E0,-1.1684915E0,1.8263062E-2,6.99819E-2,4.754075E-2,3.7518203E-2,-5.7111837E-2,1.4833182E-2,6.5433614E-2,1.7728318E-2,-6.39944E-2,-1.717861E-2,2.1752575E-2,9.730929E-3,-6.0772765E-2,-6.1254602E-2,-1.37641E-2],"categories":[],"categories_nodes":[],"categories_segments":[],"categories_sizes":[],"default_left":[0,0,0,0,0,0,0,0,0,0,0,0,0,0,0,0,0,0,0,0,0,0,0,0,0,0,0,0,0],"id":3,"left_children":[1,3,5,7,9,11,13,15,17,19,21,23,25,27,-1,-1,-1,-1,-1,-1,-1,-1,-1,-1,-1,-1,-1,-1,-1],"loss_changes":[1.672681E2,2.5873878E1,2.2800499E1,1.0609436E1,1.6961658E1,1.3839352E1,4.4187317E0,2.921936E0,1.1226867E1,5.359023E0,4.2473345E0,7.643183E0,4.419525E0,3.407959E0,0E0,0E0,0E0,0E0,0E0,0E0,0E0,0E0,0E0,0E0,0E0,0E0,0E0,0E0,0E0],"parents":[2147483647,0,0,1,1,2,2,3,3,4,4,5,5,6,6,7,7,8,8,9,9,10,10,11,11,12,12,13,13],"right_children":[2,4,6,8,10,12,14,16,18,20,22,24,26,28,-1,-1,-1,-1,-1,-1,-1,-1,-1,-1,-1,-1,-1,-1,-1],"split_conditions":[3.6855704E-1,-4.5409077E-1,1.0510701E0,1.0627673E0,7.476593E-1,5.310226E-1,1.0908712E1,4.8659506E-1,9.537496E-1,3.734686E-1,4.7341272E-1,2.3728593E-1,-8.885855E-1,2.1119633E0,1.8263062E-2,6.99819E-2,4.754075E-2,3.7518203E-2,-5.7111837E-2,1.4833182E-2,6.5433614E-2,1.7728318E-2,-6.39944E-2,-1.717861E-2,2.1752575E-2,9.730929E-3,-6.0772765E-2,-6.1254602E-2,-1.37641E-2],"split_indices":[24,18,24,3,3,3,5,17,0,3,11,0,0,1,0,0,0,0,0,0,0,0,0,0,0,0,0,0,0],"split_type":[0,0,0,0,0,0,0,0,0,0,0,0,0,0,0,0,0,0,0,0,0,0,0,0,0,0,0,0,0],"sum_hessian":[2.983911E2,1.5066724E2,1.4772389E2,9.649374E1,5.41735E1,7.314508E1,7.4578804E1,8.354455E1,1.294919E1,4.519211E1,8.981389E0,5.3928745E1,1.9216333E1,7.308008E1,1.4987295E0,4.059927E1,4.2945274E1,9.452462E0,3.4967282E0,3.9948566E1,5.243542E0,1.497613E0,7.4837756E0,3.5702755E1,1.822599E1,2.2471807E0,1.6969152E1,6.837571E1,4.704372E0],"tree_param":{"num_deleted":"0","num_feature":"34","num_nodes":"29","size_leaf_vector":"1"}},{"base_weights":[6.3296803E-3,7.118164E-1,-7.1301013E-1,1.1238326E0,3.189433E-1,-3.270618E-1,-1.0841672E0,1.2629672E0,1.1150536E-1,4.5008144E-1,-9.9315774E-1,-6.645753E-2,-2.5110254E-1,-8.1511444E-1,-1.295269E0,6.6467874E-2,3.324048E-2,3.971394E-2,-2.941063E-2,5.7011884E-2,1.6243404E-2,-8.9940894E-4,-7.395085E-2,2.669688E-2,-1.6985431E-2,-6.062305E-2,-2.4691613E-2,-3.2962274E-2,-7.460933E-2],"categories":[],"categories_nodes":[],"categories_segments":[],"categories_sizes":[],"default_left":[0,0,0,0,0,0,0,0,0,0,0,0,0,0,0,0,0,0,0,0,0,0,0,0,0,0,0,0,0],"id":4,"left_children":[1,3,5,7,9,11,13,15,17,19,21,-1,23,25,27,-1,-1,-1,-1,-1,-1,-1,-1,-1,-1,-1,-1,-1,-1],"loss_changes":[1.518889E2,2.4100014E1,2.087442E1,1.0191429E1,1.399599E1,5.3053236E0,3.2105484E0,1.6735001E0,5.2259326E0,5.875434E0,3.5110874E0,0E0,5.0572453E0,3.961544E0,4.075218E0,0E0,0E0,0E0,0E0,0E0,0E0,0E0,0E0,0E0,0E0,0E0,0E0,0E0,0E0],"parents":[2147483647,0,0,1,1,2,2,3,3,4,4,5,5,6,6,7,7,8,8,9,9,10,10,12,12,13,13,14,14],"right_children":[2,4,6,8,10,12,14,16,18,20,22,-1,24,26,28,-1,-1,-1,-1,-1,-1,-1,-1,-1,-1,-1,-1,-1,-1],"split_conditions":[3.6855704E-1,-7.212384E-1,1.0510701E0,1.2083938E0,1.5405266E0,-2.8098634E-2,1.3493398E-1,5.2035168E-2,-1.0894688E0,-1.0226731E0,-3.746685E-1,-6.645753E-2,-1.278993E0,1.1487949E0,1.0765928E0,6.6467874E-2,3.324048E-2,3.971394E-2,-2.941063E-2,5.7011884E-2,1.6243404E-2,-8.9940894E-4,-7.395085E-2,2.669688E-2,-1.6985431E-2,-6.062305E-2,-2.4691613E-2,-3.2962274E-2,-7.460933E-2],"split_indices":[24,18,24,4,4,18,0,7,18,4,18,0,4,18,18,0,0,0,0,0,0,0,0,0,0,0,0,0,0],"split_type":[0,0,0,0,0,0,0,0,0,0,0,0,0,0,0,0,0,0,0,0,0,0,0,0,0,0,0,0,0],"sum_hessian":[2.9729745E2,1.5009927E2,1.4719818E2,7.235654E1,7.774273E1,7.3083435E1,7.4114746E1,6.3395805E1,8.96073E0,7.127602E1,6.4667153E0,3.9869945E0,6.909644E1,3.4722095E1,3.9392647E1,5.596209E1,7.4337187E0,4.4668794E0,4.4938498E0,9.700737E0,6.157528E1,2.495338E0,3.9713776E0,6.498092E0,6.259835E1,1.4283333E1,2.0438765E1,1.0340794E1,2.9051855E1],"tree_param":{"num_deleted":"0","num_feature":"34","num_nodes":"29","size_leaf_vector":"1"}},{"base_weights":[5.5729137E-3,7.8421116E-1,-5.8833945E-1,1.0781097E0,3.9649028E-1,-2.5562298E-1,-1.0184562E0,1.2125878E0,1.0712802E-1,6.206105E-1,-4.81104E-1,-5.6347135E-3,-9.68527E-1,-7.088772E-1,-1.2652761E0,7.091372E-2,4.9249407E-2,4.982147E-2,-2.6135787E-2,6.010271E-2,2.4342436E-2,2.5324268E-2,-3.9333604E-2,9.46536E-3,-2.3643842E-2,3.2166247E-3,-5.4261174E-2,-2.1724341E-2,-5.74928E-2,1.4992589E-2,-6.619208E-2],"categories":[],"categories_nodes":[],"categories_segments":[],"categories_sizes":[],"default_left":[0,0,0,0,0,0,0,0,0,0,0,0,0,0,0,0,0,0,0,0,0,0,0,0,0,0,0,0,0,0,0],"id":5,"left_children":[1,3,5,7,9,11,13,15,17,19,21,23,25,27,29,-1,-1,-1,-1,-1,-1,-1,-1,-1,-1,-1,-1,-1,-1,-1,-1],"loss_changes":[1.378062E2,1.4265556E1,2.393282E1,9.371246E0,1.1544822E1,1.7220364E1,4.711609E0,1.5904617E0,6.093219E0,2.9911423E0,4.078609E0,6.6993685E0,3.0937233E0,3.7154045E0,4.023651E0,0E0,0E0,0E0,0E0,0E0,0E0,0E0,0E0,0E0,0E0,0E0,0E0,0E0,0E0,0E0,0E0],"parents":[2147483647,0,0,1,1,2,2,3,3,4,4,5,5,6,6,7,7,8,8,9,9,10,10,11,11,12,12,13,13,14,14],"right_children":[2,4,6,8,10,12,14,16,18,20,22,24,26,28,30,-1,-1,-1,-1,-1,-1,-1,-1,-1,-1,-1,-1,-1,-1,-1,-1],"split_conditions":[-1.4362192E-1,-7.212384E-1,8.311058E-1,1.2083938E0,7.476593E-1,5.310226E-1,1.3493398E-1,-1.0913622E0,4.354573E-1,-1.0335035E0,4.6084177E-1,8.4606117E-1,-8.885855E-1,2.9469162E-1,4.8659506E-1,7.091372E-2,4.9249407E-2,4.982147E-2,-2.6135787E-2,6.010271E-2,2.4342436E-2,2.5324268E-2,-3.9333604E-2,9.46536E-3,-2.3643842E-2,3.2166247E-3,-5.4261174E-2,-2.1724341E-2,-5.74928E-2,1.4992589E-2,-6.619208E-2],"split_indices":[18,18,18,4,3,3,0,7,23,4,15,7,0,3,17,0,0,0,0,0,0,0,0,0,0,0,0,0,0,0,0],"split_type":[0,0,0,0,0,0,0,0,0,0,0,0,0,0,0,0,0,0,0,0,0,0,0,0,0,0,0,0,0,0,0],"sum_hessian":[2.9599844E2,1.2794198E2,1.6805647E2,7.176348E1,5.6178497E1,9.565608E1,7.240038E1,6.281497E1,8.948512E0,4.4983444E1,1.1195053E1,7.156786E1,2.4088219E1,3.3834633E1,3.856575E1,3.0247898E1,3.256707E1,3.468779E0,5.479733E0,6.9193707E0,3.8064075E1,2.489978E0,8.705075E0,5.091856E1,2.0649307E1,2.4908502E0,2.1597368E1,2.2080656E1,1.1753976E1,1.2424366E0,3.7323315E1],"tree_param":{"num_deleted":"0","num_feature":"34","num_nodes":"31","size_leaf_vector":"1"}},{"base_weights":[5.394796E-3,6.52952E-1,-6.539222E-1,9.312926E-1,1.5701818E-1,-2.9866642E-1,-9.999194E-1,1.0699126E0,2.2367274E-2,3.8409522E-1,-9.125576E-1,-5.810469E-2,-9.4177765E-1,-6.108477E-1,-1.1275525E0,6.819587E-2,4.301816E-2,4.8059013E-2,-1.9445794E-2,1.2226254E-2,6.1956454E-2,1.7886972E-2,-5.9042055E-2,-1.559029E-2,2.1431968E-2,-6.5131396E-2,-1.2896529E-2,-1.0200909E-2,-4.4323977E-2,-5.9782457E-2,-1.2109183E-2],"categories":[],"categories_nodes":[],"categories_segments":[],"categories_sizes":[],"default_left":[0,0,0,0,0,0,0,0,0,0,0,0,0,0,0,0,0,0,0,0,0,0,0,0,0,0,0,0,0,0,0],"id":6,"left_children":[1,3,5,7,9,11,13,15,17,19,21,23,25,27,29,-1,-1,-1,-1,-1,-1,-1,-1,-1,-1,-1,-1,-1,-1,-1,-1],"loss_changes":[1.2659101E2,2.0501831E1,1.7760647E1,1.2022034E1,1.3702701E1,1.1380829E1,2.9862213E0,3.9359589E0,5.653134E0,5.1926613E0,3.8044624E0,6.9082236E0,4.6133156E0,2.1137009E0,2.9988403E0,0E0,0E0,0E0,0E0,0E0,0E0,0E0,0E0,0E0,0E0,0E0,0E0,0E0,0E0,0E0,0E0],"parents":[2147483647,0,0,1,1,2,2,3,3,4,4,5,5,6,6,7,7,8,8,9,9,10,10,11,11,12,12,13,13,14,14],"right_children":[2,4,6,8,10,12,14,16,18,20,22,24,26,28,30,-1,-1,-1,-1,-1,-1,-1,-1,-1,-1,-1,-1,-1,-1,-1,-1],"split_conditions":[3.6855704E-1,-4.5409077E-1,1.0510701E0,1.2083938E0,7.476593E-1,5.310226E-1,-5.6057507E-1,-1.0913622E0,4.354573E-1,3.734686E-1,4.7341272E-1,2.3728593E-1,1.035107E0,3.2582037E-2,2.1119633E0,6.819587E-2,4.301816E-2,4.8059013E-2,-1.9445794E-2,1.2226254E-2,6.1956454E-2,1.7886972E-2,-5.9042055E-2,-1.559029E-2,2.1431968E-2,-6.5131396E-2,-1.2896529E-2,-1.0200909E-2,-4.4323977E-2,-5.9782457E-2,-1.2109183E-2],"split_indices":[24,18,24,4,3,3,4,7,23,3,11,0,4,0,1,0,0,0,0,0,0,0,0,0,0,0,0,0,0,0,0],"split_type":[0,0,0,0,0,0,0,0,0,0,0,0,0,0,0,0,0,0,0,0,0,0,0,0,0,0,0,0,0,0,0],"sum_hessian":[2.9450385E2,1.4858183E2,1.4592203E2,9.46065E1,5.3975323E1,7.2917015E1,7.3005005E1,8.193369E1,1.2672807E1,4.505152E1,8.923804E0,5.3860386E1,1.905663E1,1.9462437E1,5.3542564E1,3.1803503E1,5.013019E1,3.4532464E0,9.219561E0,3.9835083E1,5.216436E0,1.4979085E0,7.4258957E0,3.5642292E1,1.8218098E1,1.1881948E1,7.174681E0,8.563293E0,1.0899144E1,4.9393124E1,4.1494412E0],"tree_param":{"num_deleted":"0","num_feature":"34","num_nodes":"31","size_leaf_vector":"1"}},{"base_weights":[5.0744996E-3,6.254361E-1,-6.2602425E-1,9.7038823E-1,2.484715E-1,-2.8518453E-1,-9.604727E-1,1.0401473E0,-2.5205958E-1,4.698629E-1,-7.1962476E-1,-5.5118077E-2,-9.028828E-1,-9.957521E-1,2.1945152E-2,6.2840305E-2,4.1673716E-2,2.7739573E-2,-3.327665E-2,4.4353362E-2,1.29518155E-2,1.5476273E-2,-4.592948E-2,-6.208113E-2,2.1756366E-3,1.1537725E-2,-5.2966435E-2,1.7418904E-2,-5.120925E-2],"categories":[],"categories_nodes":[],"categories_segments":[],"categories_sizes":[],"default_left":[0,0,0,0,0,0,0,0,0,0,0,0,0,0,0,0,0,0,0,0,0,0,0,0,0,0,0,0,0],"id":7,"left_children":[1,3,5,7,9,11,13,15,17,19,21,23,25,27,-1,-1,-1,-1,-1,-1,-1,-1,-1,-1,-1,-1,-1,-1,-1],"loss_changes":[1.154229E2,1.9090916E1,1.6385857E1,6.8528976E0,1.5851633E1,1.0438666E1,4.057907E0,2.2350693E0,2.029679E0,5.005028E0,3.1237988E0,6.4717484E0,3.7851086E0,3.102539E0,0E0,0E0,0E0,0E0,0E0,0E0,0E0,0E0,0E0,0E0,0E0,0E0,0E0,0E0,0E0],"parents":[2147483647,0,0,1,1,2,2,3,3,4,4,5,5,6,6,7,7,8,8,9,9,10,10,11,11,12,12,13,13],"right_children":[2,4,6,8,10,12,14,16,18,20,22,24,26,28,-1,-1,-1,-1,-1,-1,-1,-1,-1,-1,-1,-1,-1,-1,-1],"split_conditions":[3.6855704E-1,-3.13956E-1,1.0510701E0,2.067174E0,7.476593E-1,5.310226E-1,1.0908712E1,-1.0913622E0,4.354573E-1,-7.687978E-1,4.6084177E-1,4.2678365E-1,-8.885855E-1,4.8659506E-1,2.1945152E-2,6.2840305E-2,4.1673716E-2,2.7739573E-2,-3.327665E-2,4.4353362E-2,1.29518155E-2,1.5476273E-2,-4.592948E-2,-6.208113E-2,2.1756366E-3,1.1537725E-2,-5.2966435E-2,1.7418904E-2,-5.120925E-2],"split_indices":[24,24,24,3,3,3,5,7,23,3,15,21,0,17,0,0,0,0,0,0,0,0,0,0,0,0,0,0,0],"split_type":[0,0,0,0,0,0,0,0,0,0,0,0,0,0,0,0,0,0,0,0,0,0,0,0,0,0,0,0,0],"sum_hessian":[2.9281506E2,1.4766818E2,1.4514688E2,7.628616E1,7.138203E1,7.280415E1,7.234273E1,7.2308975E1,3.977188E0,5.851503E1,1.2866996E1,5.384019E1,1.896396E1,7.084509E1,1.4976308E0,3.282102E1,3.9487957E1,1.2317573E0,2.745431E0,1.8566418E1,3.994861E1,1.9945358E0,1.087246E1,3.2427013E0,5.059749E1,2.2421212E0,1.6721838E1,1.234469E0,6.961063E1],"tree_param":{"num_deleted":"0","num_feature":"34","num_nodes":"29","size_leaf_vector":"1"}},{"base_weights":[4.8959563E-3,6.928891E-1,-5.1689076E-1,9.6144533E-1,3.466545E-1,-2.0182142E-1,-9.2217714E-1,1.0341685E0,-1.4737211E-1,5.4569274E-1,-4.2948866E-1,1.6498374E-2,-8.3945125E-1,-9.5656675E-1,2.1279568E-2,6.1388116E-2,4.0606048E-2,5.0619435E-2,-3.7992593E-2,-1.0222443E-4,3.6391404E-2,2.3844374E-2,-3.554561E-2,-2.5996321E-3,6.869602E-2,1.1134013E-2,-4.7890287E-2,-3.4724128E-2,-5.8137238E-2],"categories":[],"categories_nodes":[],"categories_segments":[],"categories_sizes":[],"default_left":[0,0,0,0,0,0,0,0,0,0,0,0,0,0,0,0,0,0,0,0,0,0,0,0,0,0,0,0,0],"id":8,"left_children":[1,3,5,7,9,11,13,15,17,19,21,23,25,27,-1,-1,-1,-1,-1,-1,-1,-1,-1,-1,-1,-1,-1,-1,-1],"loss_changes":[1.05183754E2,1.1417122E1,2.1091923E1,5.8457794E0,9.003696E0,1.3242947E1,3.7721672E0,1.8565674E0,4.4778814E0,4.5526657E0,3.4371045E0,6.7443023E0,3.2627373E0,3.0346527E0,0E0,0E0,0E0,0E0,0E0,0E0,0E0,0E0,0E0,0E0,0E0,0E0,0E0,0E0,0E0],"parents":[2147483647,0,0,1,1,2,2,3,3,4,4,5,5,6,6,7,7,8,8,9,9,10,10,11,11,12,12,13,13],"right_children":[2,4,6,8,10,12,14,16,18,20,22,24,26,28,-1,-1,-1,-1,-1,-1,-1,-1,-1,-1,-1,-1,-1,-1,-1],"split_conditions":[-1.4362192E-1,-7.212384E-1,1.0510701E0,1.9490086E0,7.476593E-1,5.310226E-1,1.0908712E1,4.8659506E-1,4.29347E-1,4.8303896E-1,4.6084177E-1,3.734686E-1,-8.885855E-1,1.3493398E-1,2.1279568E-2,6.1388116E-2,4.0606048E-2,5.0619435E-2,-3.7992593E-2,-1.0222443E-4,3.6391404E-2,2.3844374E-2,-3.554561E-2,-2.5996321E-3,6.869602E-2,1.1134013E-2,-4.7890287E-2,-3.4724128E-2,-5.8137238E-2],"split_indices":[18,18,24,3,3,3,5,17,16,27,15,3,0,0,0,0,0,0,0,0,0,0,0,0,0,0,0,0,0],"split_type":[0,0,0,0,0,0,0,0,0,0,0,0,0,0,0,0,0,0,0,0,0,0,0,0,0,0,0,0,0],"sum_hessian":[2.9100497E2,1.2537109E2,1.6563388E2,6.960514E1,5.5765957E1,9.4031685E1,7.1602196E1,6.538416E1,4.220976E0,4.4620228E1,1.1145729E1,7.077348E1,2.32582E1,7.010369E1,1.4985043E0,3.251042E1,3.2873737E1,1.2331018E0,2.9878738E0,1.138145E1,3.3238777E1,2.4761806E0,8.669548E0,6.828952E1,2.4839654E0,2.2434723E0,2.1014727E1,3.279039E1,3.73133E1],"tree_param":{"num_deleted":"0","num_feature":"34","num_nodes":"29","size_leaf_vector":"1"}},{"base_weights":[5.0216797E-3,5.7571E-1,-5.7492834E-1,8.312691E-1,1.3009648E-1,-2.6256707E-1,-8.8675874E-1,9.3928355E-1,1.382172E-1,3.3049095E-1,-8.1913114E-1,-5.3071152E-2,-8.31817E-1,-9.349712E-1,-1.7486168E-1,5.8536064E-2,3.8528696E-2,3.3887003E-2,-1.7326346E-2,9.786858E-3,5.834163E-2,1.9343792E-2,-5.4157067E-2,-5.9869345E-2,2.0913454E-3,-4.9285527E-2,5.516365E-3,-1.4434901E-2,-4.8089825E-2,2.8032541E-2,-4.315944E-2],"categories":[],"categories_nodes":[],"categories_segments":[],"categories_sizes":[],"default_left":[0,0,0,0,0,0,0,0,0,0,0,0,0,0,0,0,0,0,0,0,0,0,0,0,0,0,0,0,0,0,0],"id":9,"left_children":[1,3,5,7,9,11,13,15,17,19,21,23,25,27,29,-1,-1,-1,-1,-1,-1,-1,-1,-1,-1,-1,-1,-1,-1,-1,-1],"loss_changes":[9.634203E1,1.6599476E1,1.3830074E1,6.836128E0,1.0667784E1,8.726858E0,2.301857E0,2.234581E0,3.8229852E0,4.9381247E0,3.544158E0,6.004307E0,2.9675913E0,8.846245E-1,3.4132788E0,0E0,0E0,0E0,0E0,0E0,0E0,0E0,0E0,0E0,0E0,0E0,0E0,0E0,0E0,0E0,0E0],"parents":[2147483647,0,0,1,1,2,2,3,3,4,4,5,5,6,6,7,7,8,8,9,9,10,10,11,11,12,12,13,13,14,14],"right_children":[2,4,6,8,10,12,14,16,18,20,22,24,26,28,30,-1,-1,-1,-1,-1,-1,-1,-1,-1,-1,-1,-1,-1,-1,-1,-1],"split_conditions":[3.6855704E-1,-4.5409077E-1,1.0510701E0,1.0627673E0,7.476593E-1,5.310226E-1,2.1119633E0,-1.0913622E0,4.4715557E-1,3.734686E-1,4.7341272E-1,4.2678365E-1,1E0,3.6964557E-1,2.9469162E-1,5.8536064E-2,3.8528696E-2,3.3887003E-2,-1.7326346E-2,9.786858E-3,5.834163E-2,1.9343792E-2,-5.4157067E-2,-5.9869345E-2,2.0913454E-3,-4.9285527E-2,5.516365E-3,-1.4434901E-2,-4.8089825E-2,2.8032541E-2,-4.315944E-2],"split_indices":[24,18,24,3,3,3,1,7,22,3,11,21,30,7,3,0,0,0,0,0,0,0,0,0,0,0,0,0,0,0,0],"split_type":[0,0,0,0,0,0,0,0,0,0,0,0,0,0,0,0,0,0,0,0,0,0,0,0,0,0,0,0,0,0,0],"sum_hessian":[2.8908923E2,1.4571176E2,1.4337746E2,9.205363E1,5.3658142E1,7.254798E1,7.0829475E1,7.933389E1,1.2719736E1,4.484302E1,8.815121E0,5.383047E1,1.8717514E1,6.604341E1,4.7860675E0,3.0944536E1,4.838935E1,5.831313E0,6.888423E0,3.968319E1,5.1598296E0,1.4995856E0,7.3155355E0,3.2326288E0,5.059784E1,1.6049658E1,2.6678555E0,3.1008162E0,6.2942596E1,2.4034002E0,2.3826673E0],"tree_param":{"num_deleted":"0","num_feature":"34","num_nodes":"31","size_leaf_vector":"1"}},{"base_weights":[4.6927906E-3,3.9528376E-1,-6.61133E-1,1.0519347E0,2.0837645E-1,-4.486999E-1,-9.35923E-1,1.1586524E0,3.6372465E-1,3.5877264E-1,-5.68038E-1,-5.0435495E-1,3.9209378E-1,-1.04258E0,-3.9079785E-1,6.0258646E-2,4.2500725E-4,4.7259755E-2,-1.11812E-2,3.003842E-2,7.514423E-3,2.2198228E-2,-4.3552317E-2,1.43189775E-2,-2.80998E-2,-1.5714943E-2,6.159103E-2,-2.6295407E-2,-5.951748E-2,3.293648E-2,-4.637493E-2],"categories":[],"categories_nodes":[],"categories_segments":[],"categories_sizes":[],"default_left":[0,0,0,0,0,0,0,0,0,0,0,0,0,0,0,0,0,0,0,0,0,0,0,0,0,0,0,0,0,0,0],"id":10,"left_children":[1,3,5,7,9,11,13,15,17,19,21,23,25,27,29,-1,-1,-1,-1,-1,-1,-1,-1,-1,-1,-1,-1,-1,-1,-1,-1],"loss_changes":[7.518787E1,2.2143967E1,5.820072E0,2.5255394E0,1.6911776E1,3.108817E0,2.2488556E0,1.8239822E0,2.5488775E0,5.988146E0,7.625342E0,2.8402786E0,3.0118675E0,2.2455215E0,5.723158E0,0E0,0E0,0E0,0E0,0E0,0E0,0E0,0E0,0E0,0E0,0E0,0E0,0E0,0E0,0E0,0E0],"parents":[2147483647,0,0,1,1,2,2,3,3,4,4,5,5,6,6,7,7,8,8,9,9,10,10,11,11,12,12,13,13,14,14],"right_children":[2,4,6,8,10,12,14,16,18,20,22,24,26,28,30,-1,-1,-1,-1,-1,-1,-1,-1,-1,-1,-1,-1,-1,-1,-1,-1],"split_conditions":[6.87256E-1,-9.643181E-1,-4.6134586E-3,1.1434113E0,7.673536E-1,2.1119633E0,1.3202245E0,1E0,-1.9806713E0,-5.324668E-1,4.4715557E-1,-1.707401E0,-5.31694E-1,8.4606117E-1,5.310226E-1,6.0258646E-2,4.2500725E-4,4.7259755E-2,-1.11812E-2,3.003842E-2,7.514423E-3,2.2198228E-2,-4.3552317E-2,1.43189775E-2,-2.80998E-2,-1.5714943E-2,6.159103E-2,-2.6295407E-2,-5.951748E-2,3.293648E-2,-4.637493E-2],"split_indices":[7,7,4,4,3,1,1,31,7,3,22,0,4,7,3,0,0,0,0,0,0,0,0,0,0,0,0,0,0,0,0],"split_type":[0,0,0,0,0,0,0,0,0,0,0,0,0,0,0,0,0,0,0,0,0,0,0,0,0,0,0,0,0,0,0],"sum_hessian":[2.8710635E2,1.8121008E2,1.05896286E2,3.912529E1,1.420848E2,6.120959E1,4.4686695E1,3.328098E1,5.8443108E0,1.19478905E2,2.2605879E1,5.778476E1,3.4248316E0,3.661098E1,8.075713E0,3.1941208E1,1.3397721E0,2.6306908E0,3.21362E0,5.442458E1,6.505433E1,5.101717E0,1.7504162E1,3.6564384E0,5.4128323E1,2.1999276E0,1.2249041E0,9.156062E0,2.7454918E1,2.6554894E0,5.420224E0],"tree_param":{"num_deleted":"0","num_feature":"34","num_nodes":"31","size_leaf_vector":"1"}},{"base_weights":[4.6477905E-3,5.377749E-1,-5.3607297E-1,8.4659266E-1,2.108723E-1,-2.4357812E-1,-8.3235085E-1,9.856317E-1,1.8146954E-1,4.0008733E-1,-6.20113E-1,-5.088716E-2,-7.733026E-1,-8.664466E-1,2.2205172E-2,5.2492928E-2,2.1011865E-2,3.8500153E-2,-6.7818062E-3,3.993919E-2,1.0048884E-2,-6.4403624E-3,-5.352341E-2,-1.4712987E-2,2.0771064E-2,-5.6890767E-2,-5.353968E-3,-2.2495836E-2,-5.061076E-2],"categories":[],"categories_nodes":[],"categories_segments":[],"categories_sizes":[],"default_left":[0,0,0,0,0,0,0,0,0,0,0,0,0,0,0,0,0,0,0,0,0,0,0,0,0,0,0,0,0],"id":11,"left_children":[1,3,5,7,9,11,13,15,17,19,21,23,25,27,-1,-1,-1,-1,-1,-1,-1,-1,-1,-1,-1,-1,-1,-1,-1],"loss_changes":[8.288424E1,1.4436722E1,1.2167744E1,6.675026E0,1.1515333E1,7.437114E0,3.453144E0,1.7766113E0,2.7246614E0,4.5212345E0,2.8895516E0,6.3389916E0,4.6055717E0,3.7344322E0,0E0,0E0,0E0,0E0,0E0,0E0,0E0,0E0,0E0,0E0,0E0,0E0,0E0,0E0,0E0],"parents":[2147483647,0,0,1,1,2,2,3,3,4,4,5,5,6,6,7,7,8,8,9,9,10,10,11,11,12,12,13,13],"right_children":[2,4,6,8,10,12,14,16,18,20,22,24,26,28,-1,-1,-1,-1,-1,-1,-1,-1,-1,-1,-1,-1,-1,-1,-1],"split_conditions":[3.6855704E-1,-3.13956E-1,1.0510701E0,8.473797E-1,7.476593E-1,5.310226E-1,1.0908712E1,5.2035168E-2,4.354573E-1,-7.687978E-1,1.085649E0,2.3728593E-1,1.035107E0,-5.6057507E-1,2.2205172E-2,5.2492928E-2,2.1011865E-2,3.8500153E-2,-6.7818062E-3,3.993919E-2,1.0048884E-2,-6.4403624E-3,-5.352341E-2,-1.4712987E-2,2.0771064E-2,-5.6890767E-2,-5.353968E-3,-2.2495836E-2,-5.061076E-2],"split_indices":[24,24,24,4,3,3,5,7,23,3,4,0,4,4,0,0,0,0,0,0,0,0,0,0,0,0,0,0,0],"split_type":[0,0,0,0,0,0,0,0,0,0,0,0,0,0,0,0,0,0,0,0,0,0,0,0,0,0,0,0,0],"sum_hessian":[2.8552002E2,1.4377226E2,1.4174774E2,7.3113655E1,7.065861E1,7.224618E1,6.950157E1,6.0073795E1,1.3039862E1,5.7976025E1,1.2682578E1,5.3779552E1,1.8466621E1,6.800624E1,1.495326E0,5.3176296E1,6.8975E0,4.065766E0,8.974095E0,1.8306791E1,3.9669235E1,6.6805654E0,6.002013E0,3.5579235E1,1.8200317E1,1.1478497E1,6.988125E0,1.8689102E1,4.9317142E1],"tree_param":{"num_deleted":"0","num_feature":"34","num_nodes":"29","size_leaf_vector":"1"}},{"base_weights":[4.409242E-3,5.981028E-1,-4.4193235E-1,1.0459125E0,4.2727557E-1,-1.7165409E-1,-8.012564E-1,6.451665E-1,5.971071E-2,-1.2110969E-2,6.1307204E-1,4.8437044E-2,-4.5689166E-1,-8.346144E-1,2.1530867E-2,4.9448114E-2,-2.8988928E-2,1.6999979E-2,-4.1628074E-2,3.421391E-2,-2.8518765E-5,-3.2968936E-4,5.9701264E-2,-6.799235E-2,-1.766528E-2,-2.8647145E-2,-5.22612E-2],"categories":[],"categories_nodes":[],"categories_segments":[],"categories_sizes":[],"default_left":[0,0,0,0,0,0,0,0,0,0,0,0,0,0,0,0,0,0,0,0,0,0,0,0,0,0,0],"id":12,"left_children":[1,3,5,7,9,11,13,15,-1,17,19,21,23,25,-1,-1,-1,-1,-1,-1,-1,-1,-1,-1,-1,-1,-1],"loss_changes":[7.5623604E1,8.921959E0,1.5684216E1,1.1983795E0,7.382761E0,5.9389806E0,3.222065E0,5.2576976E0,0E0,8.322749E0,2.7756443E0,3.4187622E0,3.3680487E0,3.1578789E0,0E0,0E0,0E0,0E0,0E0,0E0,0E0,0E0,0E0,0E0,0E0,0E0,0E0],"parents":[2147483647,0,0,1,1,2,2,3,3,4,4,5,5,6,6,7,7,9,9,10,10,11,11,12,12,13,13],"right_children":[2,4,6,8,10,12,14,16,-1,18,20,22,24,26,-1,-1,-1,-1,-1,-1,-1,-1,-1,-1,-1,-1,-1],"split_conditions":[-1.4362192E-1,-1.1688911E0,1.0510701E0,-1.267167E0,4.8303896E-1,6.87256E-1,1.0908712E1,-9.3255705E-1,5.971071E-2,-4.4687057E-1,6.87256E-1,3.914313E0,-3.531884E-2,1.3493398E-1,2.1530867E-2,4.9448114E-2,-2.8988928E-2,1.6999979E-2,-4.1628074E-2,3.421391E-2,-2.8518765E-5,-3.2968936E-4,5.9701264E-2,-6.799235E-2,-1.766528E-2,-2.8647145E-2,-5.22612E-2],"split_indices":[18,18,24,6,27,7,5,7,0,18,7,2,18,0,0,0,0,0,0,0,0,0,0,0,0,0,0],"split_type":[0,0,0,0,0,0,0,0,0,0,0,0,0,0,0,0,0,0,0,0,0,0,0,0,0,0,0],"sum_hessian":[2.8338525E2,1.2147172E2,1.6191353E2,3.2128048E1,8.934367E1,9.3249985E1,6.866354E1,1.0123189E1,2.2004858E1,2.682962E1,6.251405E1,5.310444E1,4.0145542E1,6.7167206E1,1.4963388E0,8.05508E0,2.0681083E0,1.918265E1,7.6469717E0,5.59111E1,6.602952E0,5.161905E1,1.4853895E0,2.8833969E0,3.7262146E1,3.1611704E1,3.55555E1],"tree_param":{"num_deleted":"0","num_feature":"34","num_nodes":"27","size_leaf_vector":"1"}},{"base_weights":[4.242478E-3,4.9573854E-1,-4.937661E-1,8.131448E-1,2.1500386E-1,-2.2493294E-1,-7.717405E-1,9.3782395E-1,-1.1855112E-2,3.9223382E-1,-5.2434677E-1,-4.090276E-2,-7.357524E-1,-8.043926E-1,2.0880139E-2,5.736639E-2,3.581705E-2,3.971995E-2,-2.7387252E-2,4.7601327E-2,1.3814658E-2,2.9084483E-2,-4.033606E-2,-1.3645986E-2,2.0134881E-2,-5.453784E-2,-4.7507896E-3,-1.9862926E-2,-4.7454912E-2],"categories":[],"categories_nodes":[],"categories_segments":[],"categories_sizes":[],"default_left":[0,0,0,0,0,0,0,0,0,0,0,0,0,0,0,0,0,0,0,0,0,0,0,0,0,0,0,0,0],"id":13,"left_children":[1,3,5,7,9,11,13,15,17,19,21,23,25,27,-1,-1,-1,-1,-1,-1,-1,-1,-1,-1,-1,-1,-1,-1,-1],"loss_changes":[6.938302E1,1.253717E1,1.0348438E1,6.8613434E0,1.03035755E1,6.8313947E0,3.0082436E0,1.8632202E0,4.639445E0,3.8085613E0,5.256684E0,5.741569E0,4.2801437E0,3.588871E0,0E0,0E0,0E0,0E0,0E0,0E0,0E0,0E0,0E0,0E0,0E0,0E0,0E0,0E0,0E0],"parents":[2147483647,0,0,1,1,2,2,3,3,4,4,5,5,6,6,7,7,8,8,9,9,10,10,11,11,12,12,13,13],"right_children":[2,4,6,8,10,12,14,16,18,20,22,24,26,28,-1,-1,-1,-1,-1,-1,-1,-1,-1,-1,-1,-1,-1,-1,-1],"split_conditions":[3.6855704E-1,-7.212384E-1,1.0510701E0,1.2083938E0,7.476593E-1,5.310226E-1,1.0908712E1,4.947566E-1,4.354573E-1,-1.0226731E0,4.6084177E-1,2.3728593E-1,1.035107E0,-5.6057507E-1,2.0880139E-2,5.736639E-2,3.581705E-2,3.971995E-2,-2.7387252E-2,4.7601327E-2,1.3814658E-2,2.9084483E-2,-4.033606E-2,-1.3645986E-2,2.0134881E-2,-5.453784E-2,-4.7507896E-3,-1.9862926E-2,-4.7454912E-2],"split_indices":[24,18,24,4,3,3,5,20,23,4,15,0,4,4,0,0,0,0,0,0,0,0,0,0,0,0,0,0,0],"split_type":[0,0,0,0,0,0,0,0,0,0,0,0,0,0,0,0,0,0,0,0,0,0,0,0,0,0,0,0,0],"sum_hessian":[2.8146292E2,1.4166E2,1.3980293E2,6.559735E1,7.6062645E1,7.198976E1,6.781318E1,5.6866566E1,8.730787E0,6.1733887E1,1.4328758E1,5.3717365E1,1.8272394E1,6.631621E1,1.4969712E0,2.7075382E1,2.9791183E1,3.293411E0,5.437376E0,9.354845E0,5.2379044E1,2.6985955E0,1.1630162E1,3.552266E1,1.8194706E1,1.13059225E1,6.9664707E0,1.8371807E1,4.7944397E1],"tree_param":{"num_deleted":"0","num_feature":"34","num_nodes":"29","size_leaf_vector":"1"}},{"base_weights":[4.2682816E-3,5.531679E-1,-4.0651026E-1,6.296677E-1,-4.069771E-1,-1.5841424E-1,-7.434024E-1,8.7175065E-1,3.3987808E-1,5.3055793E-1,-8.957484E-1,1.6124789E-2,-6.858809E-1,-3.8051984E-1,-8.6916554E-1,5.3705998E-2,3.254577E-2,-1.00050485E-2,2.6989464E-2,5.2345075E-2,-1.6414136E-2,-4.535662E-3,-5.5461306E-2,-2.415184E-3,6.502205E-2,1.2835629E-2,-3.909654E-2,-2.6890537E-2,2.9362044E-3,2.3677887E-2,-4.5596145E-2],"categories":[],"categories_nodes":[],"categories_segments":[],"categories_sizes":[],"default_left":[0,0,0,0,0,0,0,0,0,0,0,0,0,0,0,0,0,0,0,0,0,0,0,0,0,0,0,0,0,0,0],"id":14,"left_children":[1,3,5,7,9,11,13,15,17,19,21,23,25,27,29,-1,-1,-1,-1,-1,-1,-1,-1,-1,-1,-1,-1,-1,-1,-1,-1],"loss_changes":[6.3412666E1,9.098103E0,1.3327509E1,7.5529213E0,4.8242865E0,8.656898E0,2.77042E0,1.9966545E0,5.7822437E0,2.0644426E0,1.0354233E0,5.9824634E0,2.3167505E0,1.3627675E0,3.2843018E0,0E0,0E0,0E0,0E0,0E0,0E0,0E0,0E0,0E0,0E0,0E0,0E0,0E0,0E0,0E0,0E0],"parents":[2147483647,0,0,1,1,2,2,3,3,4,4,5,5,6,6,7,7,8,8,9,9,10,10,11,11,12,12,13,13,14,14],"right_children":[2,4,6,8,10,12,14,16,18,20,22,24,26,28,30,-1,-1,-1,-1,-1,-1,-1,-1,-1,-1,-1,-1,-1,-1,-1,-1],"split_conditions":[-1.4362192E-1,1.7860162E0,1.0510701E0,-7.212384E-1,4.29347E-1,5.310226E-1,-5.6057507E-1,4.8659506E-1,4.8303896E-1,4.147741E-1,-2.6325315E-1,3.734686E-1,4.283884E-1,-8.349458E-1,4.8659506E-1,5.3705998E-2,3.254577E-2,-1.00050485E-2,2.6989464E-2,5.2345075E-2,-1.6414136E-2,-4.535662E-3,-5.5461306E-2,-2.415184E-3,6.502205E-2,1.2835629E-2,-3.909654E-2,-2.6890537E-2,2.9362044E-3,2.3677887E-2,-4.5596145E-2],"split_indices":[18,4,24,18,16,3,4,17,27,12,1,3,28,4,17,0,0,0,0,0,0,0,0,0,0,0,0,0,0,0,0],"split_type":[0,0,0,0,0,0,0,0,0,0,0,0,0,0,0,0,0,0,0,0,0,0,0,0,0,0,0,0,0,0,0],"sum_hessian":[2.7924155E2,1.1937758E2,1.5986398E2,1.1088683E2,8.490744E0,9.291167E1,6.695231E1,5.9322273E1,5.1564564E1,2.8803387E0,5.610405E0,7.053953E1,2.237214E1,1.826766E1,4.868465E1,2.8939116E1,3.0383158E1,1.3931989E1,3.7632572E1,1.662098E0,1.2182406E0,1.4745885E0,4.1358166E0,6.808633E1,2.4532003E0,1.9142083E0,2.0457933E1,1.3285716E1,4.9819446E0,1.1915172E0,4.7493134E1],"tree_param":{"num_deleted":"0","num_feature":"34","num_nodes":"31","size_leaf_vector":"1"}},{"base_weights":[4.342786E-3,4.578848E-1,-4.5444095E-1,6.776521E-1,9.3100004E-2,-2.0649382E-1,-7.160467E-1,7.9878366E-1,-5.3957615E-2,2.6127136E-1,-7.15233E-1,-3.8333483E-2,-6.8050414E-1,-7.488305E-1,2.1627387E-2,5.3868473E-2,3.0872723E-2,4.3069094E-2,-1.7358622E-2,-1.8787758E-2,2.0985423E-2,-5.5341385E-3,-5.7707336E-2,-5.728175E-2,2.6453366E-3,-5.156315E-2,-3.0152209E-3,-1.8234614E-2,-4.441194E-2],"categories":[],"categories_nodes":[],"categories_segments":[],"categories_sizes":[],"default_left":[0,0,0,0,0,0,0,0,0,0,0,0,0,0,0,0,0,0,0,0,0,0,0,0,0,0,0,0,0],"id":15,"left_children":[1,3,5,7,9,11,13,15,17,19,21,23,25,27,-1,-1,-1,-1,-1,-1,-1,-1,-1,-1,-1,-1,-1,-1,-1],"loss_changes":[5.807371E1,1.1188063E1,8.85215E0,7.7905273E0,7.517108E0,5.764062E0,2.8509789E0,3.1268349E0,3.8834045E0,4.73675E0,2.4073892E0,5.5847855E0,4.0628357E0,3.1898537E0,0E0,0E0,0E0,0E0,0E0,0E0,0E0,0E0,0E0,0E0,0E0,0E0,0E0,0E0,0E0],"parents":[2147483647,0,0,1,1,2,2,3,3,4,4,5,5,6,6,7,7,8,8,9,9,10,10,11,11,12,12,13,13],"right_children":[2,4,6,8,10,12,14,16,18,20,22,24,26,28,-1,-1,-1,-1,-1,-1,-1,-1,-1,-1,-1,-1,-1,-1,-1],"split_conditions":[3.6855704E-1,-4.5409077E-1,1.0510701E0,1.2083938E0,7.476593E-1,5.310226E-1,1.0908712E1,-1.0913622E0,-1.9806713E0,4.29347E-1,2.1084036E-1,4.2678365E-1,1.035107E0,-5.6057507E-1,2.1627387E-2,5.3868473E-2,3.0872723E-2,4.3069094E-2,-1.7358622E-2,-1.8787758E-2,2.0985423E-2,-5.5341385E-3,-5.7707336E-2,-5.728175E-2,2.6453366E-3,-5.156315E-2,-3.0152209E-3,-1.8234614E-2,-4.441194E-2],"split_indices":[24,18,24,4,3,3,5,7,7,16,7,21,4,4,0,0,0,0,0,0,0,0,0,0,0,0,0,0,0],"split_type":[0,0,0,0,0,0,0,0,0,0,0,0,0,0,0,0,0,0,0,0,0,0,0,0,0,0,0,0,0],"sum_hessian":[2.7709625E2,1.3934514E2,1.3775113E2,8.6421936E1,5.2923206E1,7.164042E1,6.61107E1,7.4066956E1,1.2354977E1,4.4369118E1,8.55409E0,5.3678318E1,1.7962101E1,6.461449E1,1.4962159E0,2.7253866E1,4.681309E1,2.5273957E0,9.827581E0,8.564055E0,3.580506E1,4.1248217E0,4.429268E0,3.2065854E0,5.0471733E1,1.10499325E1,6.912168E0,1.816819E1,4.6446297E1],"tree_param":{"num_deleted":"0","num_feature":"34","num_nodes":"29","size_leaf_vector":"1"}},{"base_weights":[3.795893E-3,4.39257E-1,-4.3625268E-1,7.137501E-1,1.6274314E-1,-1.9823092E-1,-6.900159E-1,8.444431E-1,1.21943235E-1,3.2861757E-1,-5.677018E-1,-3.743823E-2,-6.5526265E-1,-4.4295117E-1,-8.9773166E-1,4.554076E-2,1.4847921E-2,2.672945E-2,-1.410599E-2,1.0856081E-2,5.277713E-2,-6.0421885E-3,-4.9217656E-2,-1.2905279E-2,1.9202033E-2,-4.9879503E-2,-2.8851354E-3,-4.3848075E-2,-5.7316665E-3,-1.1539844E-2,-5.605681E-2],"categories":[],"categories_nodes":[],"categories_segments":[],"categories_sizes":[],"default_left":[0,0,0,0,0,0,0,0,0,0,0,0,0,0,0,0,0,0,0,0,0,0,0,0,0,0,0,0,0,0,0],"id":16,"left_children":[1,3,5,7,9,11,13,15,17,19,21,23,25,27,29,-1,-1,-1,-1,-1,-1,-1,-1,-1,-1,-1,-1,-1,-1,-1,-1],"loss_changes":[5.305155E1,1.0445265E1,8.180769E0,5.2750816E0,8.742272E0,5.3003283E0,3.002018E0,1.793026E0,2.4428663E0,4.4861994E0,2.3823433E0,5.183059E0,3.7876654E0,4.4921603E0,4.9583054E0,0E0,0E0,0E0,0E0,0E0,0E0,0E0,0E0,0E0,0E0,0E0,0E0,0E0,0E0,0E0,0E0],"parents":[2147483647,0,0,1,1,2,2,3,3,4,4,5,5,6,6,7,7,8,8,9,9,10,10,11,11,12,12,13,13,14,14],"right_children":[2,4,6,8,10,12,14,16,18,20,22,24,26,28,30,-1,-1,-1,-1,-1,-1,-1,-1,-1,-1,-1,-1,-1,-1,-1,-1],"split_conditions":[3.6855704E-1,-3.13956E-1,1.0510701E0,8.473797E-1,7.476593E-1,5.310226E-1,1.3493398E-1,5.2035168E-2,4.147741E-1,3.734686E-1,1.085649E0,2.3728593E-1,1.035107E0,1.1487949E0,1.0765928E0,4.554076E-2,1.4847921E-2,2.672945E-2,-1.410599E-2,1.0856081E-2,5.277713E-2,-6.0421885E-3,-4.9217656E-2,-1.2905279E-2,1.9202033E-2,-4.9879503E-2,-2.8851354E-3,-4.3848075E-2,-5.7316665E-3,-1.1539844E-2,-5.605681E-2],"split_indices":[24,24,24,4,3,3,0,7,12,3,4,0,4,18,18,0,0,0,0,0,0,0,0,0,0,0,0,0,0,0,0],"split_type":[0,0,0,0,0,0,0,0,0,0,0,0,0,0,0,0,0,0,0,0,0,0,0,0,0,0,0,0,0,0,0],"sum_hessian":[2.7485226E2,1.3814711E2,1.3670514E2,6.8533356E1,6.961376E1,7.145954E1,6.52456E1,5.578669E1,1.2746663E1,5.7179226E1,1.2434537E1,5.3662086E1,1.7797455E1,3.1230906E1,3.4014694E1,4.9162975E1,6.623713E0,6.146535E0,6.600128E0,5.070133E1,6.477899E0,6.622234E0,5.8123026E0,3.5476048E1,1.8186039E1,1.088962E1,6.907835E0,1.2730764E1,1.8500141E1,9.045135E0,2.496956E1],"tree_param":{"num_deleted":"0","num_feature":"34","num_nodes":"31","size_leaf_vector":"1"}},{"base_weights":[3.32508E-3,4.2153352E-1,-4.1891178E-1,6.8871474E-1,1.5520883E-1,-1.8955857E-1,-6.6578156E-1,7.271936E-1,-3.999488E-2,3.1412834E-1,-5.46234E-1,-3.5478424E-2,-6.3120735E-1,-4.2548233E-1,-8.6982524E-1,3.8490217E-2,-2.7981647E-3,3.524335E-2,6.1236974E-3,1.6088782E-2,-3.6259484E-2,-5.531233E-2,2.613321E-3,1.877711E-2,-3.940817E-2,-7.7301017E-3,-4.2737287E-2,-4.5613717E-2,1.2465679E-2],"categories":[],"categories_nodes":[],"categories_segments":[],"categories_sizes":[],"default_left":[0,0,0,0,0,0,0,0,0,0,0,0,0,0,0,0,0,0,0,0,0,0,0,0,0,0,0,0,0],"id":17,"left_children":[1,3,5,7,9,11,13,15,-1,17,19,21,23,25,27,-1,-1,-1,-1,-1,-1,-1,-1,-1,-1,-1,-1,-1,-1],"loss_changes":[4.850304E1,9.712204E0,7.6128654E0,4.5107727E0,8.019033E0,4.894408E0,2.8380337E0,2.2919312E0,0E0,4.2593E0,2.3099384E0,5.190109E0,3.23953E0,3.5891514E0,1.862936E0,0E0,0E0,0E0,0E0,0E0,0E0,0E0,0E0,0E0,0E0,0E0,0E0,0E0,0E0],"parents":[2147483647,0,0,1,1,2,2,3,3,4,4,5,5,6,6,7,7,9,9,10,10,11,11,12,12,13,13,14,14],"right_children":[2,4,6,8,10,12,14,16,-1,18,20,22,24,26,28,-1,-1,-1,-1,-1,-1,-1,-1,-1,-1,-1,-1,-1,-1],"split_conditions":[3.6855704E-1,-3.13956E-1,1.0510701E0,5.4393735E0,7.476593E-1,5.310226E-1,1.3493398E-1,2.067174E0,-3.999488E-2,-7.687978E-1,4.6084177E-1,4.2678365E-1,-8.885855E-1,2.9469162E-1,4.1970825E0,3.8490217E-2,-2.7981647E-3,3.524335E-2,6.1236974E-3,1.6088782E-2,-3.6259484E-2,-5.531233E-2,2.613321E-3,1.877711E-2,-3.940817E-2,-7.7301017E-3,-4.2737287E-2,-4.5613717E-2,1.2465679E-2],"split_indices":[24,24,24,2,3,3,0,3,0,3,15,21,0,3,2,0,0,0,0,0,0,0,0,0,0,0,0,0,0],"split_type":[0,0,0,0,0,0,0,0,0,0,0,0,0,0,0,0,0,0,0,0,0,0,0,0,0,0,0,0,0],"sum_hessian":[2.7267554E2,1.3699211E2,1.3568344E2,6.759436E1,6.939775E1,7.1253525E1,6.442991E1,6.6389755E1,1.2046001E0,5.702931E1,1.2368441E1,5.362533E1,1.7628195E1,3.1003174E1,3.3426735E1,6.2980125E1,3.4096322E0,1.7886038E1,3.914327E1,1.9776995E0,1.0390741E1,3.1823936E0,5.0442936E1,2.1897848E0,1.5438411E1,1.9842203E1,1.1160971E1,3.2383274E1,1.0434611E0],"tree_param":{"num_deleted":"0","num_feature":"34","num_nodes":"29","size_leaf_vector":"1"}},{"base_weights":[2.6570933E-3,6.1038584E-1,-2.6995647E-1,6.4758027E-1,-4.462626E-2,-7.4709795E-2,-6.420586E-1,9.2133015E-1,4.290375E-1,4.817147E-2,-6.566676E-1,2.7086833E-2,-6.722226E-1,5.7541728E-2,2.6567835E-2,3.0170722E-2,-3.6969476E-3,1.1546368E-2,-1.4104689E-2,1.9475227E-2,-4.1001365E-2,-2.1559885E-2,-4.4137176E-2],"categories":[],"categories_nodes":[],"categories_segments":[],"categories_sizes":[],"default_left":[0,0,0,0,0,0,0,0,0,0,0,0,0,0,0,0,0,0,0,0,0,0,0],"id":18,"left_children":[1,3,5,7,-1,9,11,13,15,17,19,-1,21,-1,-1,-1,-1,-1,-1,-1,-1,-1,-1],"loss_changes":[4.5149326E1,5.29529E0,1.3620305E1,4.5660896E0,0E0,8.936391E0,2.6713543E0,2.6054554E0,4.2533903E0,6.3269315E0,4.041211E0,0E0,2.839037E0,0E0,0E0,0E0,0E0,0E0,0E0,0E0,0E0,0E0,0E0],"parents":[2147483647,0,0,1,1,2,2,3,3,5,5,6,6,7,7,8,8,9,9,10,10,12,12],"right_children":[2,4,6,8,-1,10,12,14,16,18,20,-1,22,-1,-1,-1,-1,-1,-1,-1,-1,-1,-1],"split_conditions":[-4.5409077E-1,5.4816523E0,1.0510701E0,4.947566E-1,-4.462626E-2,7.673536E-1,4.8659506E-1,-9.5950514E-1,5.704111E-1,6.87256E-1,4.283884E-1,2.7086833E-2,1.3493398E-1,5.7541728E-2,2.6567835E-2,3.0170722E-2,-3.6969476E-3,1.1546368E-2,-1.4104689E-2,1.9475227E-2,-4.1001365E-2,-2.1559885E-2,-4.4137176E-2],"split_indices":[18,2,24,20,0,3,17,18,3,7,28,0,0,0,0,0,0,0,0,0,0,0,0],"split_type":[0,0,0,0,0,0,0,0,0,0,0,0,0,0,0,0,0,0,0,0,0,0,0],"sum_hessian":[2.705227E2,8.338846E1,1.8713425E2,8.192995E1,1.4585086E0,1.2352167E2,6.3612587E1,3.494346E1,4.698649E1,1.0274428E2,2.0777384E1,1.1592131E0,6.2453373E1,2.0769365E1,1.4174094E1,3.4742073E1,1.2244414E1,6.6336845E1,3.6407433E1,2.61923E0,1.8158154E1,3.0538334E1,3.191504E1],"tree_param":{"num_deleted":"0","num_feature":"34","num_nodes":"23","size_leaf_vector":"1"}},{"base_weights":[2.5648938E-3,5.879447E-1,-2.5840023E-1,7.020468E-1,-7.146989E-2,1.2138885E-3,-4.9478042E-1,9.903787E-1,5.2273506E-1,3.5594955E-2,-3.878944E-1,1.0997348E-1,-6.3873714E-1,-4.9842156E-2,-6.1411977E-1,5.2670788E-2,-9.930889E-3,1.6966871E-3,3.5641458E-2,2.5979921E-2,-3.33405E-2,4.720272E-5,3.3672195E-2,-3.864291E-3,-4.756809E-2,5.6957784E-3,-4.2341474E-2,-3.2342285E-2,3.846655E-2],"categories":[],"categories_nodes":[],"categories_segments":[],"categories_sizes":[],"default_left":[0,0,0,0,0,0,0,0,0,0,0,0,0,0,0,0,0,0,0,0,0,0,0,0,0,0,0,0,0],"id":19,"left_children":[1,3,5,7,9,11,13,15,17,-1,19,21,23,25,27,-1,-1,-1,-1,-1,-1,-1,-1,-1,-1,-1,-1,-1,-1],"loss_changes":[4.1309505E1,6.323681E0,1.1478844E1,3.1619911E0,3.5498435E0,6.343859E0,5.16794E0,2.1708603E0,4.2500525E0,0E0,2.8913944E0,4.784936E0,2.2504797E0,2.9408631E0,3.9887486E0,0E0,0E0,0E0,0E0,0E0,0E0,0E0,0E0,0E0,0E0,0E0,0E0,0E0,0E0],"parents":[2147483647,0,0,1,1,2,2,3,3,4,4,5,5,6,6,7,7,8,8,10,10,11,11,12,12,13,13,14,14],"right_children":[2,4,6,8,10,12,14,16,18,-1,20,22,24,26,28,-1,-1,-1,-1,-1,-1,-1,-1,-1,-1,-1,-1,-1,-1],"split_conditions":[-4.5409077E-1,1.2083938E0,6.87256E-1,-1.0913622E0,4.354573E-1,8.094452E-1,-9.071486E-1,1E0,4.7341272E-1,3.5594955E-2,-1.0894688E0,1E0,-3.946071E-1,-7.2212244E-4,1.0908712E1,5.2670788E-2,-9.930889E-3,1.6966871E-3,3.5641458E-2,2.5979921E-2,-3.33405E-2,4.720272E-5,3.3672195E-2,-3.864291E-3,-4.756809E-2,5.6957784E-3,-4.2341474E-2,-3.2342285E-2,3.846655E-2],"split_indices":[18,4,7,7,23,18,4,31,11,0,18,30,3,3,5,0,0,0,0,0,0,0,0,0,0,0,0,0,0],"split_type":[0,0,0,0,0,0,0,0,0,0,0,0,0,0,0,0,0,0,0,0,0,0,0,0,0,0,0,0,0],"sum_hessian":[2.684199E2,8.237924E1,1.8604066E2,7.017229E1,1.2206953E1,8.91371E1,9.690356E1,2.517227E1,4.500002E1,3.152505E0,9.054448E0,7.6896675E1,1.2240427E1,2.0793997E1,7.610956E1,2.4013191E1,1.1590784E0,1.2930217E1,3.2069805E1,1.9257652E0,7.128683E0,6.5269035E1,1.162764E1,4.8240314E0,7.4163957E0,1.7960669E1,2.833328E0,7.487091E1,1.2386522E0],"tree_param":{"num_deleted":"0","num_feature":"34","num_nodes":"29","size_leaf_vector":"1"}},{"base_weights":[2.7115408E-3,5.6725764E-1,-2.4699844E-1,6.0413796E-1,-4.375904E-2,-6.5495245E-2,-5.998524E-1,8.7527364E-1,3.9109403E-1,1.00888744E-1,-3.502352E-1,-3.71013E-1,-7.992926E-1,5.5318255E-2,2.467787E-2,-1.9155996E-2,2.3203693E-2,-4.1172197E-4,3.3156894E-2,1.8794382E-2,-2.0408304E-2,-4.0355E-2,-2.453448E-3,-6.232198E-3,-5.1681805E-2],"categories":[],"categories_nodes":[],"categories_segments":[],"categories_sizes":[],"default_left":[0,0,0,0,0,0,0,0,0,0,0,0,0,0,0,0,0,0,0,0,0,0,0,0,0],"id":20,"left_children":[1,3,5,7,-1,9,11,13,15,17,19,21,23,-1,-1,-1,-1,-1,-1,-1,-1,-1,-1,-1,-1],"loss_changes":[3.7847347E1,4.9085827E0,1.1882337E1,4.329094E0,0E0,5.9119563E0,2.5835667E0,2.5216045E0,2.8387337E0,4.856685E0,2.0872688E0,4.3481846E0,5.065094E0,0E0,0E0,0E0,0E0,0E0,0E0,0E0,0E0,0E0,0E0,0E0,0E0],"parents":[2147483647,0,0,1,1,2,2,3,3,5,5,6,6,7,7,8,8,9,9,10,10,11,11,12,12],"right_children":[2,4,6,8,-1,10,12,14,16,18,20,22,24,-1,-1,-1,-1,-1,-1,-1,-1,-1,-1,-1,-1],"split_conditions":[-4.5409077E-1,5.4816523E0,1.0510701E0,4.947566E-1,-4.375904E-2,6.87256E-1,1.3493398E-1,-9.5950514E-1,-1.5613974E0,1E0,4.1342574E-1,1.1487949E0,1.0765928E0,5.5318255E-2,2.467787E-2,-1.9155996E-2,2.3203693E-2,-4.1172197E-4,3.3156894E-2,1.8794382E-2,-2.0408304E-2,-4.0355E-2,-2.453448E-3,-6.232198E-3,-5.1681805E-2],"split_indices":[18,2,24,20,0,7,0,18,26,30,8,18,18,0,0,0,0,0,0,0,0,0,0,0,0],"split_type":[0,0,0,0,0,0,0,0,0,0,0,0,0,0,0,0,0,0,0,0,0,0,0,0,0],"sum_hessian":[2.6647882E2,8.133175E1,1.8514706E2,7.987078E1,1.4609723E0,1.2304171E2,6.2105347E1,3.3776222E1,4.609456E1,7.8068886E1,4.4972828E1,3.0253035E1,3.185231E1,1.985661E1,1.3919613E1,3.6046464E0,4.248991E1,6.6204956E1,1.1863925E1,2.9173505E0,4.205548E1,1.2208772E1,1.8044264E1,8.606639E0,2.3245672E1],"tree_param":{"num_deleted":"0","num_feature":"34","num_nodes":"25","size_leaf_vector":"1"}},{"base_weights":[2.4873903E-3,4.2331237E-1,-3.0645478E-1,4.928112E-1,-4.0705085E-1,-1.3392721E-1,-5.6281924E-1,7.7199405E-1,2.9084036E-1,4.5099512E-1,-8.427955E-1,6.574839E-3,-4.5399013E-1,-2.917135E-1,-8.053999E-1,4.5011785E-2,1.1615668E-2,-3.7293192E-3,2.3613125E-2,4.7663156E-2,-1.7085614E-2,-4.5419773E-3,-5.2099675E-2,-5.796564E-3,2.8774148E-2,-4.0610593E-2,-1.7047072E-3,-1.7068174E-3,-3.2107268E-2,-9.915455E-3,-5.0376054E-2],"categories":[],"categories_nodes":[],"categories_segments":[],"categories_sizes":[],"default_left":[0,0,0,0,0,0,0,0,0,0,0,0,0,0,0,0,0,0,0,0,0,0,0,0,0,0,0,0,0,0,0],"id":21,"left_children":[1,3,5,7,9,11,13,15,17,19,21,23,25,27,29,-1,-1,-1,-1,-1,-1,-1,-1,-1,-1,-1,-1,-1,-1,-1,-1],"loss_changes":[3.4665993E1,6.714691E0,6.725605E0,5.674221E0,3.8443685E0,4.195166E0,3.8123283E0,2.7881832E0,4.16578E0,1.8275735E0,8.77995E-1,4.650506E0,4.252128E0,2.7428336E0,3.7159367E0,0E0,0E0,0E0,0E0,0E0,0E0,0E0,0E0,0E0,0E0,0E0,0E0,0E0,0E0,0E0,0E0],"parents":[2147483647,0,0,1,1,2,2,3,3,4,4,5,5,6,6,7,7,8,8,9,9,10,10,11,11,12,12,13,13,14,14],"right_children":[2,4,6,8,10,12,14,16,18,20,22,24,26,28,30,-1,-1,-1,-1,-1,-1,-1,-1,-1,-1,-1,-1,-1,-1,-1,-1],"split_conditions":[-1.4362192E-1,1.7860162E0,8.311058E-1,4.8659506E-1,4.29347E-1,8.4606117E-1,1.3493398E-1,-4.5409077E-1,4.8303896E-1,4.147741E-1,-1.1255699E0,8.5139763E-1,7.6572126E-1,8.7445125E-2,1.0765928E0,4.5011785E-2,1.1615668E-2,-3.7293192E-3,2.3613125E-2,4.7663156E-2,-1.7085614E-2,-4.5419773E-3,-5.2099675E-2,-5.796564E-3,2.8774148E-2,-4.0610593E-2,-1.7047072E-3,-1.7068174E-3,-3.2107268E-2,-9.915455E-3,-5.0376054E-2],"split_indices":[18,4,18,17,16,7,0,18,27,12,18,0,6,4,18,0,0,0,0,0,0,0,0,0,0,0,0,0,0,0,0],"split_type":[0,0,0,0,0,0,0,0,0,0,0,0,0,0,0,0,0,0,0,0,0,0,0,0,0,0,0,0,0,0,0],"sum_hessian":[2.6464197E2,1.1187773E2,1.5276424E2,1.0361222E2,8.265511E0,9.2222786E1,6.054146E1,4.2307945E1,6.1304276E1,2.7720106E0,5.4935E0,6.476954E1,2.7453243E1,2.9629904E1,3.0911552E1,3.3644974E1,8.662972E0,2.0533625E1,4.0770653E1,1.5728774E0,1.1991333E0,1.4554236E0,4.0380764E0,5.3948692E1,1.0820847E1,1.4310419E1,1.3142825E1,1.7709984E1,1.191992E1,8.215784E0,2.2695768E1],"tree_param":{"num_deleted":"0","num_feature":"34","num_nodes":"31","size_leaf_vector":"1"}},{"base_weights":[2.137517E-3,5.275799E-1,-2.2746982E-1,6.380143E-1,-9.2012085E-2,-6.0207658E-2,-5.597421E-1,4.6671193E-2,4.6083614E-1,3.7985995E-2,-3.5121736E-1,9.276679E-2,-3.2299146E-1,2.9782766E-2,-5.911796E-1,-5.6575815E-4,3.241164E-2,-6.511345E-2,8.50675E-3,-1.5130264E-2,1.07666375E-2,1.0746963E-2,-2.4449952E-2,-1.0869856E-2,-3.6654904E-2],"categories":[],"categories_nodes":[],"categories_segments":[],"categories_sizes":[],"default_left":[0,0,0,0,0,0,0,0,0,0,0,0,0,0,0,0,0,0,0,0,0,0,0,0,0],"id":22,"left_children":[1,3,5,7,9,11,13,-1,15,-1,17,19,21,-1,23,-1,-1,-1,-1,-1,-1,-1,-1,-1,-1],"loss_changes":[3.194713E1,5.568495E0,1.0208132E1,3.1535034E0,3.149062E0,5.0025682E0,2.5890503E0,0E0,3.968935E0,0E0,5.5234923E0,3.8915935E0,4.189453E0,0E0,3.0475483E0,0E0,0E0,0E0,0E0,0E0,0E0,0E0,0E0,0E0,0E0],"parents":[2147483647,0,0,1,1,2,2,3,3,4,4,5,5,6,6,8,8,10,10,11,11,12,12,14,14],"right_children":[2,4,6,8,10,12,14,-1,16,-1,18,20,22,-1,24,-1,-1,-1,-1,-1,-1,-1,-1,-1,-1],"split_conditions":[-4.5409077E-1,1.2083938E0,1.0510701E0,-1.0913622E0,-1.9806713E0,6.87256E-1,4.8659506E-1,4.6671193E-2,4.7341272E-1,3.7985995E-2,4.2678365E-1,4.8303896E-1,-9.324196E-1,2.9782766E-2,-5.6057507E-1,-5.6575815E-4,3.241164E-2,-6.511345E-2,8.50675E-3,-1.5130264E-2,1.07666375E-2,1.0746963E-2,-2.4449952E-2,-1.0869856E-2,-3.6654904E-2],"split_indices":[18,4,24,7,7,7,17,0,11,0,21,27,4,0,4,0,0,0,0,0,0,0,0,0,0],"split_type":[0,0,0,0,0,0,0,0,0,0,0,0,0,0,0,0,0,0,0,0,0,0,0,0,0],"sum_hessian":[2.628071E2,7.9523865E1,1.8328325E2,6.746869E1,1.2055171E1,1.2269909E2,6.058416E1,2.3694513E1,4.3774178E1,2.362194E0,9.692977E0,7.796201E1,4.4737076E1,1.1293888E0,5.9454773E1,1.2704483E1,3.1069695E1,2.9017444E0,6.791233E0,1.8101488E1,5.9860523E1,1.0480695E1,3.4256382E1,1.7058428E1,4.2396343E1],"tree_param":{"num_deleted":"0","num_feature":"34","num_nodes":"25","size_leaf_vector":"1"}},{"base_weights":[2.1578548E-3,5.084656E-1,-2.174417E-1,7.7662617E-1,3.0468515E-1,-5.7423156E-2,-5.3892744E-1,5.1897775E-2,4.5332387E-1,4.8728764E-1,-1.8376793E-1,5.7055302E-2,-6.094403E-1,-5.9506744E-1,1.8194646E-1,-1.031856E-2,4.6491068E-2,3.2355685E-2,-7.410761E-3,2.813892E-2,-2.7876997E-2,1.0118138E-2,-1.0354834E-2,2.0109938E-2,-3.8568106E-2,-2.2557545E-2,-4.124105E-2,4.1082546E-2,-2.8519819E-2],"categories":[],"categories_nodes":[],"categories_segments":[],"categories_sizes":[],"default_left":[0,0,0,0,0,0,0,0,0,0,0,0,0,0,0,0,0,0,0,0,0,0,0,0,0,0,0,0,0],"id":23,"left_children":[1,3,5,7,9,11,13,-1,15,17,19,21,23,25,27,-1,-1,-1,-1,-1,-1,-1,-1,-1,-1,-1,-1,-1,-1],"loss_changes":[2.923073E1,4.109419E0,9.402608E0,2.3763313E0,4.2669606E0,7.842657E0,2.5697384E0,0E0,5.4845276E0,3.5863667E0,4.0726233E0,4.0048485E0,3.80054E0,1.5014305E0,2.9522038E0,0E0,0E0,0E0,0E0,0E0,0E0,0E0,0E0,0E0,0E0,0E0,0E0,0E0,0E0],"parents":[2147483647,0,0,1,1,2,2,3,3,4,4,5,5,6,6,8,8,9,9,10,10,11,11,12,12,13,13,14,14],"right_children":[2,4,6,8,10,12,14,-1,16,18,20,22,24,26,28,-1,-1,-1,-1,-1,-1,-1,-1,-1,-1,-1,-1,-1,-1],"split_conditions":[-4.5409077E-1,4.947566E-1,1.0510701E0,-1.0172668E0,5.704111E-1,7.673536E-1,2.1119633E0,5.1897775E-2,4.4715557E-1,2.574992E-1,4.147741E-1,6.87256E-1,4.283884E-1,1.7335831E0,2.9469162E-1,-1.031856E-2,4.6491068E-2,3.2355685E-2,-7.410761E-3,2.813892E-2,-2.7876997E-2,1.0118138E-2,-1.0354834E-2,2.0109938E-2,-3.8568106E-2,-2.2557545E-2,-4.124105E-2,4.1082546E-2,-2.8519819E-2],"split_indices":[18,20,24,18,3,3,1,0,22,6,12,7,28,24,3,0,0,0,0,0,0,0,0,0,0,0,0,0,0],"split_type":[0,0,0,0,0,0,0,0,0,0,0,0,0,0,0,0,0,0,0,0,0,0,0,0,0,0,0,0,0],"sum_hessian":[2.6090744E2,7.853109E1,1.8237636E2,3.2695305E1,4.583579E1,1.2255407E2,5.982229E1,1.6858158E1,1.5837147E1,3.3365044E1,1.2470745E1,1.02246605E2,2.0307468E1,5.5661983E1,4.160307E0,6.879544E0,8.9576025E0,2.6645542E1,6.7195005E0,3.9919095E0,8.478836E0,6.611261E1,3.6133995E1,2.5971756E0,1.7710293E1,3.6046352E1,1.961563E1,2.1986816E0,1.9616251E0],"tree_param":{"num_deleted":"0","num_feature":"34","num_nodes":"29","size_leaf_vector":"1"}},{"base_weights":[2.2524348E-3,3.2259673E-1,-3.188903E-1,3.9946592E-1,-3.8545725E-1,6.459505E-1,-3.6100167E-1,5.697785E-2,3.334499E-1,6.2159574E-1,-8.1236184E-1,8.49393E-2,5.1648565E-2,-6.654153E-2,-3.226977E-1,3.773119E-2,1.13422815E-2,4.7726326E-2,1.3044879E-3,2.5175335E-3,-5.7488825E-2,3.21859E-2,-2.5935505E-2,-5.903158E-3,-2.6655093E-2],"categories":[],"categories_nodes":[],"categories_segments":[],"categories_sizes":[],"default_left":[0,0,0,0,0,0,0,0,0,0,0,0,0,0,0,0,0,0,0,0,0,0,0,0,0],"id":24,"left_children":[1,3,5,7,9,11,13,-1,15,17,19,21,-1,-1,23,-1,-1,-1,-1,-1,-1,-1,-1,-1,-1],"loss_changes":[2.684903E1,7.2649794E0,5.528719E0,5.402197E0,6.224487E0,1.1735525E0,4.2335434E0,0E0,4.7707815E0,8.726721E-1,2.9037871E0,1.5013491E0,0E0,0E0,5.193104E0,0E0,0E0,0E0,0E0,0E0,0E0,0E0,0E0,0E0,0E0],"parents":[2147483647,0,0,1,1,2,2,3,3,4,4,5,5,6,6,8,8,9,9,10,10,11,11,14,14],"right_children":[2,4,6,8,10,12,14,-1,16,18,20,22,-1,-1,24,-1,-1,-1,-1,-1,-1,-1,-1,-1,-1],"split_conditions":[3.6855704E-1,1.5405266E0,4.4715557E-1,-1.3947204E0,-1.0894688E0,-3.656275E-1,-1.3658223E-2,5.697785E-2,-8.92708E-1,4.29347E-1,4.7341272E-1,-8.764624E-1,5.1648565E-2,-6.654153E-2,1.0510701E0,3.773119E-2,1.13422815E-2,4.7726326E-2,1.3044879E-3,2.5175335E-3,-5.7488825E-2,3.21859E-2,-2.5935505E-2,-5.903158E-3,-2.6655093E-2],"split_indices":[24,4,22,14,18,4,18,0,4,16,11,4,0,0,24,0,0,0,0,0,0,0,0,0,0],"split_type":[0,0,0,0,0,0,0,0,0,0,0,0,0,0,0,0,0,0,0,0,0,0,0,0,0],"sum_hessian":[2.589838E2,1.296508E2,1.29333E2,1.1734697E2,1.2303836E1,4.8091154E0,1.2452387E2,8.278355E0,1.0906862E2,3.5272126E0,8.776623E0,2.4610856E0,2.34803E0,3.44918E0,1.2107469E2,2.0802608E1,8.826601E1,1.8756859E0,1.6515266E0,2.706734E0,6.069889E0,1.243573E0,1.2175126E0,6.217031E1,5.890438E1],"tree_param":{"num_deleted":"0","num_feature":"34","num_nodes":"25","size_leaf_vector":"1"}},{"base_weights":[2.3814752E-3,4.77446E-1,-2.0171976E-1,5.831347E-1,-1.0067442E-1,-5.6395177E-2,-4.9919024E-1,8.8372576E-1,4.0902188E-1,3.5370912E-2,-3.397473E-1,5.0904047E-2,-5.796224E-1,-2.766329E-1,-7.012407E-1,4.7666915E-2,-1.4741639E-2,-1.4317338E-2,2.6508747E-2,-2.6956016E-2,1.8402683E-2,-3.1373769E-3,2.0596819E-2,1.9550776E-2,-3.6882635E-2,-3.634948E-2,2.330971E-3,-2.2839815E-3,-4.715421E-2],"categories":[],"categories_nodes":[],"categories_segments":[],"categories_sizes":[],"default_left":[0,0,0,0,0,0,0,0,0,0,0,0,0,0,0,0,0,0,0,0,0,0,0,0,0,0,0,0,0],"id":25,"left_children":[1,3,5,7,9,11,13,15,17,-1,19,21,23,25,27,-1,-1,-1,-1,-1,-1,-1,-1,-1,-1,-1,-1,-1,-1],"loss_changes":[2.514206E1,4.819849E0,7.81304E0,3.094143E0,2.731843E0,6.933916E0,2.4772196E0,2.1972294E0,3.8308964E0,0E0,1.6981628E0,4.2510047E0,3.5110054E0,4.3893695E0,4.7899857E0,0E0,0E0,0E0,0E0,0E0,0E0,0E0,0E0,0E0,0E0,0E0,0E0,0E0,0E0],"parents":[2147483647,0,0,1,1,2,2,3,3,4,4,5,5,6,6,7,7,8,8,10,10,11,11,12,12,13,13,14,14],"right_children":[2,4,6,8,10,12,14,16,18,-1,20,22,24,26,28,-1,-1,-1,-1,-1,-1,-1,-1,-1,-1,-1,-1,-1,-1],"split_conditions":[-4.5409077E-1,1.2083938E0,1.0510701E0,-1.0913622E0,-1.9806713E0,7.673536E-1,1.3493398E-1,1E0,-1.267167E0,3.5370912E-2,-5.912747E-1,2.769775E-1,4.283884E-1,1.1487949E0,1.0765928E0,4.7666915E-2,-1.4741639E-2,-1.4317338E-2,2.6508747E-2,-2.6956016E-2,1.8402683E-2,-3.1373769E-3,2.0596819E-2,1.9550776E-2,-3.6882635E-2,-3.634948E-2,2.330971E-3,-2.2839815E-3,-4.715421E-2],"split_indices":[18,4,24,7,7,3,0,31,6,0,18,4,28,18,18,0,0,0,0,0,0,0,0,0,0,0,0,0,0],"split_type":[0,0,0,0,0,0,0,0,0,0,0,0,0,0,0,0,0,0,0,0,0,0,0,0,0,0,0,0,0],"sum_hessian":[2.573068E2,7.6922745E1,1.8038406E2,6.502632E1,1.1896424E1,1.2198148E2,5.8402576E1,2.2355633E1,4.2670685E1,2.2687597E0,9.627665E0,1.01972496E2,2.0008986E1,2.8918337E1,2.9484238E1,2.1289263E1,1.0663694E0,6.129035E0,3.654165E1,7.6976976E0,1.9299667E0,7.8186035E1,2.3786463E1,2.5951302E0,1.7413857E1,1.1561632E1,1.7356705E1,8.266164E0,2.1218075E1],"tree_param":{"num_deleted":"0","num_feature":"34","num_nodes":"29","size_leaf_vector":"1"}},{"base_weights":[2.2344356E-3,2.9869533E-1,-2.9432747E-1,8.522216E-1,2.0623027E-1,-1.6767654E-1,-6.18068E-1,5.2188393E-2,3.435538E-1,2.9652154E-1,-6.5902907E-1,-2.4509503E-1,4.1958275E-1,1.380817E-2,-6.629965E-1,-1.7466092E-2,3.840336E-2,4.0392574E-2,1.0659888E-2,3.665459E-3,-4.5245897E-2,1.4605346E-2,-1.628626E-2,4.8505966E-2,-8.23049E-3,1.235793E-2,-3.5375237E-2],"categories":[],"categories_nodes":[],"categories_segments":[],"categories_sizes":[],"default_left":[0,0,0,0,0,0,0,0,0,0,0,0,0,0,0,0,0,0,0,0,0,0,0,0,0,0,0],"id":26,"left_children":[1,3,5,7,9,11,13,-1,15,17,19,21,23,-1,25,-1,-1,-1,-1,-1,-1,-1,-1,-1,-1,-1,-1],"loss_changes":[2.2635714E1,6.4138393E0,5.173831E0,1.4058723E0,8.917276E0,4.371543E0,1.6222925E0,0E0,2.163867E0,4.164201E0,2.0218086E0,3.7156386E0,3.7954872E0,0E0,1.5684824E0,0E0,0E0,0E0,0E0,0E0,0E0,0E0,0E0,0E0,0E0,0E0,0E0],"parents":[2147483647,0,0,1,1,2,2,3,3,4,4,5,5,6,6,8,8,9,9,10,10,11,11,12,12,14,14],"right_children":[2,4,6,8,10,12,14,-1,16,18,20,22,24,-1,26,-1,-1,-1,-1,-1,-1,-1,-1,-1,-1,-1,-1],"split_conditions":[3.6855704E-1,-9.96469E-1,4.3255135E-1,4.4715557E-1,1.5405266E0,4.574845E-1,4.283884E-1,5.2188393E-2,4.3913618E-1,-1.0226731E0,4.147741E-1,-1.278993E0,7.6572126E-1,1.380817E-2,4.255346E-1,-1.7466092E-2,3.840336E-2,4.0392574E-2,1.0659888E-2,3.665459E-3,-4.5245897E-2,1.4605346E-2,-1.628626E-2,4.8505966E-2,-8.23049E-3,1.235793E-2,-3.5375237E-2],"split_indices":[24,24,3,22,4,4,28,0,13,4,12,4,6,0,26,0,0,0,0,0,0,0,0,0,0,0,0],"split_type":[0,0,0,0,0,0,0,0,0,0,0,0,0,0,0,0,0,0,0,0,0,0,0,0,0,0,0],"sum_hessian":[2.5546104E2,1.2774868E2,1.2771236E2,1.7109411E1,1.10639275E2,9.289049E1,3.4821873E1,1.1664872E1,5.444539E0,1.00780014E2,9.859262E0,8.258583E1,1.0304657E1,1.4196299E0,3.340224E1,2.1357567E0,3.3087823E0,1.2903046E1,8.787696E1,2.6546624E0,7.2045994E0,1.043557E1,7.215026E1,4.9650416E0,5.3396153E0,1.3450046E0,3.2057236E1],"tree_param":{"num_deleted":"0","num_feature":"34","num_nodes":"27","size_leaf_vector":"1"}},{"base_weights":[2.583339E-3,2.1623175E-1,-3.669148E-1,6.988976E-1,1.0172132E-1,-1.9732776E-1,-6.0549796E-1,8.0035144E-1,1.7907977E-1,4.739414E-1,4.5404676E-3,3.3735227E-2,-2.5227362E-1,-7.325649E-1,-1.2216715E-2,4.3022662E-2,-1.53072E-2,3.1647824E-2,-1.7127179E-2,-7.105173E-3,3.496046E-2,1.913244E-2,-4.582194E-3,-1.53366765E-2,2.521418E-2,-1.3277351E-2,-4.4226628E-2,-2.1891786E-2,4.8312332E-2],"categories":[],"categories_nodes":[],"categories_segments":[],"categories_sizes":[],"default_left":[0,0,0,0,0,0,0,0,0,0,0,0,0,0,0,0,0,0,0,0,0,0,0,0,0,0,0,0,0],"id":27,"left_children":[1,3,5,7,9,11,13,15,17,19,21,-1,23,25,27,-1,-1,-1,-1,-1,-1,-1,-1,-1,-1,-1,-1,-1,-1],"loss_changes":[2.0197123E1,8.888399E0,3.6731806E0,1.4869747E0,4.7795053E0,2.866581E0,2.890606E0,1.9643536E0,1.7169815E0,3.8959403E0,3.883977E0,0E0,2.3658617E0,2.0121403E0,3.672063E0,0E0,0E0,0E0,0E0,0E0,0E0,0E0,0E0,0E0,0E0,0E0,0E0,0E0,0E0],"parents":[2147483647,0,0,1,1,2,2,3,3,4,4,5,5,6,6,7,7,8,8,9,9,10,10,12,12,13,13,14,14],"right_children":[2,4,6,8,10,12,14,16,18,20,22,-1,24,26,28,-1,-1,-1,-1,-1,-1,-1,-1,-1,-1,-1,-1,-1,-1],"split_conditions":[6.87256E-1,-9.643181E-1,-4.6134586E-3,1.1434113E0,-8.1328493E-1,4.6084177E-1,1.3202245E0,1E0,4.8659506E-1,4.8303896E-1,4.6084177E-1,3.3735227E-2,2.1119633E0,8.4606117E-1,1E0,4.3022662E-2,-1.53072E-2,3.1647824E-2,-1.7127179E-2,-7.105173E-3,3.496046E-2,1.913244E-2,-4.582194E-3,-1.53366765E-2,2.521418E-2,-1.3277351E-2,-4.4226628E-2,-2.1891786E-2,4.8312332E-2],"split_indices":[7,7,4,4,4,15,1,31,17,27,15,0,1,7,30,0,0,0,0,0,0,0,0,0,0,0,0,0,0],"split_type":[0,0,0,0,0,0,0,0,0,0,0,0,0,0,0,0,0,0,0,0,0,0,0,0,0,0,0,0,0],"sum_hessian":[2.538404E2,1.6110327E2,9.273712E1,2.9913479E1,1.3118979E2,5.5274555E1,3.7462563E1,2.457705E1,5.336429E0,2.63578E1,1.0483199E2,2.6077743E0,5.2666782E1,3.0660938E1,6.8016233E0,2.3521774E1,1.0552754E0,2.739388E0,2.5970411E0,7.1563497E0,1.9201448E1,2.0655458E1,8.417654E1,4.968484E1,2.9819396E0,8.202105E0,2.2458836E1,5.12489E0,1.676734E0],"tree_param":{"num_deleted":"0","num_feature":"34","num_nodes":"29","size_leaf_vector":"1"}},{"base_weights":[2.859774E-3,4.3532425E-1,-1.798609E-1,5.356958E-1,-9.941848E-2,-4.8170134E-2,-4.555638E-1,8.2965416E-1,3.7306333E-1,6.131125E-1,-3.7262443E-1,4.952342E-2,-5.346239E-1,-4.9234912E-1,2.8436074E-2,4.5071576E-2,-1.484956E-2,-4.0592686E-3,2.7961044E-2,4.656833E-2,-5.3417045E-3,-3.2590594E-2,2.1796092E-2,-3.0106462E-3,1.990742E-2,1.9138914E-2,-3.4413315E-2,-2.7951697E-2,1.6833028E-2],"categories":[],"categories_nodes":[],"categories_segments":[],"categories_sizes":[],"default_left":[0,0,0,0,0,0,0,0,0,0,0,0,0,0,0,0,0,0,0,0,0,0,0,0,0,0,0,0,0],"id":28,"left_children":[1,3,5,7,9,11,13,15,17,19,21,23,25,27,-1,-1,-1,-1,-1,-1,-1,-1,-1,-1,-1,-1,-1,-1,-1],"loss_changes":[2.0106209E1,4.1094484E0,6.472771E0,2.7399006E0,2.717615E0,5.8326683E0,2.4542675E0,2.0389318E0,3.6716633E0,9.9812484E-1,2.5109613E0,3.951339E0,3.1554403E0,3.2973242E0,0E0,0E0,0E0,0E0,0E0,0E0,0E0,0E0,0E0,0E0,0E0,0E0,0E0,0E0,0E0],"parents":[2147483647,0,0,1,1,2,2,3,3,4,4,5,5,6,6,7,7,8,8,9,9,10,10,11,11,12,12,13,13],"right_children":[2,4,6,8,10,12,14,16,18,20,22,24,26,28,-1,-1,-1,-1,-1,-1,-1,-1,-1,-1,-1,-1,-1,-1,-1],"split_conditions":[-4.5409077E-1,1.2083938E0,1.0510701E0,-1.0913622E0,4.354573E-1,7.673536E-1,1.0908712E1,1E0,4.7341272E-1,4.255346E-1,-5.912747E-1,2.769775E-1,4.283884E-1,2.1119633E0,2.8436074E-2,4.5071576E-2,-1.484956E-2,-4.0592686E-3,2.7961044E-2,4.656833E-2,-5.3417045E-3,-3.2590594E-2,2.1796092E-2,-3.0106462E-3,1.990742E-2,1.9138914E-2,-3.4413315E-2,-2.7951697E-2,1.6833028E-2],"split_indices":[18,4,24,7,23,3,5,31,11,26,18,4,28,1,0,0,0,0,0,0,0,0,0,0,0,0,0,0,0],"split_type":[0,0,0,0,0,0,0,0,0,0,0,0,0,0,0,0,0,0,0,0,0,0,0,0,0,0,0,0,0],"sum_hessian":[2.5245305E2,7.457233E1,1.7788072E2,6.278564E1,1.1786684E1,1.2117544E2,5.6705288E1,2.0902657E1,4.1882984E1,2.9219618E0,8.864722E0,1.0165788E2,1.9517557E1,5.524074E1,1.4645435E0,1.9838655E1,1.0640013E0,1.2338738E1,2.9544245E1,1.8226113E0,1.0993505E0,6.733516E0,2.1312058E0,7.794918E1,2.37087E1,2.5858755E0,1.693168E1,5.1429462E1,3.8112822E0],"tree_param":{"num_deleted":"0","num_feature":"34","num_nodes":"29","size_leaf_vector":"1"}},{"base_weights":[3.1636127E-3,4.198707E-1,-1.7168157E-1,4.568499E-1,-4.275295E-2,-1.0420834E-1,-6.8551666E-1,7.26167E-1,2.571717E-1,-6.10586E-2,-9.308831E-1,1.0769132E-1,-8.399694E-1,4.8936166E-2,1.7606033E-2,2.3269914E-2,-3.6957343E-3,4.923655E-2,-4.459903E-3,-1.0580571E-2,-5.642118E-2,2.0864438E-2,-1.6431382E-2,-7.6221386E-3,-5.3031653E-2],"categories":[],"categories_nodes":[],"categories_segments":[],"categories_sizes":[],"default_left":[0,0,0,0,0,0,0,0,0,0,0,0,0,0,0,0,0,0,0,0,0,0,0,0,0],"id":29,"left_children":[1,3,5,7,-1,9,11,13,15,17,19,21,23,-1,-1,-1,-1,-1,-1,-1,-1,-1,-1,-1,-1],"loss_changes":[1.8409466E1,3.9114885E0,6.099925E0,3.7511482E0,0E0,5.597721E0,2.5997343E0,2.5487747E0,3.0401073E0,4.552854E0,8.685689E-1,7.0779604E-1,2.4564362E0,0E0,0E0,0E0,0E0,0E0,0E0,0E0,0E0,0E0,0E0,0E0,0E0],"parents":[2147483647,0,0,1,1,2,2,3,3,5,5,6,6,7,7,8,8,9,9,10,10,11,11,12,12],"right_children":[2,4,6,8,-1,10,12,14,16,18,20,22,24,-1,-1,-1,-1,-1,-1,-1,-1,-1,-1,-1,-1],"split_conditions":[-4.5409077E-1,5.4816523E0,1.7335831E0,4.947566E-1,-4.275295E-2,1.8505373E0,-7.8623354E-1,-9.5950514E-1,3.257144E-1,-1.3947204E0,1.1434113E0,2.9469162E-1,-7.0971507E-1,4.8936166E-2,1.7606033E-2,2.3269914E-2,-3.6957343E-3,4.923655E-2,-4.459903E-3,-1.0580571E-2,-5.642118E-2,2.0864438E-2,-1.6431382E-2,-7.6221386E-3,-5.3031653E-2],"split_indices":[18,2,24,20,0,3,0,18,4,14,4,3,3,0,0,0,0,0,0,0,0,0,0,0,0],"split_type":[0,0,0,0,0,0,0,0,0,0,0,0,0,0,0,0,0,0,0,0,0,0,0,0,0],"sum_hessian":[2.5068237E2,7.3680016E1,1.7700237E2,7.222675E1,1.4532622E0,1.5752066E2,1.94817E1,2.962848E1,4.259827E1,1.5072705E2,6.7936044E0,3.2245326E0,1.625717E1,1.672152E1,1.2906961E1,2.5902205E1,1.6696066E1,3.058663E0,1.476684E2,1.9100573E0,4.883547E0,1.9116819E0,1.3128507E0,4.3608403E0,1.1896329E1],"tree_param":{"num_deleted":"0","num_feature":"34","num_nodes":"25","size_leaf_vector":"1"}},{"base_weights":[2.893504E-3,4.0413764E-1,-1.6414988E-1,6.596877E-1,1.9659904E-1,9.785708E-3,-3.3162284E-1,9.505218E-1,3.8490784E-1,3.137299E-1,-7.1837884E-1,6.168879E-2,-4.4280007E-2,-3.5704345E-1,4.1968696E-2,2.540487E-2,5.8571447E-2,-1.629308E-2,2.7173255E-2,4.995008E-2,1.1387628E-2,1.5530143E-3,-4.774126E-2,-1.6005104E-2,8.629799E-3,-1.5043803E-2,-4.6978608E-2],"categories":[],"categories_nodes":[],"categories_segments":[],"categories_sizes":[],"default_left":[0,0,0,0,0,0,0,0,0,0,0,0,0,0,0,0,0,0,0,0,0,0,0,0,0,0,0],"id":30,"left_children":[1,3,5,7,9,11,13,15,17,19,21,23,-1,25,-1,-1,-1,-1,-1,-1,-1,-1,-1,-1,-1,-1,-1],"loss_changes":[1.684079E1,3.787259E0,5.171315E0,2.245286E0,4.7458935E0,4.144311E0,2.9911575E0,8.896599E-1,2.259881E0,2.0166032E0,9.317651E-1,3.6169126E0,0E0,2.635747E0,0E0,0E0,0E0,0E0,0E0,0E0,0E0,0E0,0E0,0E0,0E0,0E0,0E0],"parents":[2147483647,0,0,1,1,2,2,3,3,4,4,5,5,6,6,7,7,8,8,9,9,10,10,11,11,13,13],"right_children":[2,4,6,8,10,12,14,16,18,20,22,24,-1,26,-1,-1,-1,-1,-1,-1,-1,-1,-1,-1,-1,-1,-1],"split_conditions":[-4.5409077E-1,4.8659506E-1,6.87256E-1,4.947566E-1,1.7725651E0,1.1776757E0,1.0908712E1,4.3913618E-1,-1.1543813E0,-1.3421807E0,-1.1472305E0,4.8303896E-1,-4.4280007E-2,1.3631574E0,4.1968696E-2,2.540487E-2,5.8571447E-2,-1.629308E-2,2.7173255E-2,4.995008E-2,1.1387628E-2,1.5530143E-3,-4.774126E-2,-1.6005104E-2,8.629799E-3,-1.5043803E-2,-4.6978608E-2],"split_indices":[18,17,7,20,0,18,5,13,27,9,18,27,0,0,0,0,0,0,0,0,0,0,0,0,0,0,0],"split_type":[0,0,0,0,0,0,0,0,0,0,0,0,0,0,0,0,0,0,0,0,0,0,0,0,0,0,0],"sum_hessian":[2.4927092E2,7.2853905E1,1.76417E2,3.167395E1,4.117995E1,8.7000656E1,8.941636E1,1.4192757E1,1.7481194E1,3.7089108E1,4.090843E0,8.311388E1,3.8867812E0,8.819683E1,1.2195283E0,5.8255715E0,8.367185E0,2.9959567E0,1.4485237E1,2.9507964E0,3.4138313E1,1.1894392E0,2.9014041E0,1.8284487E1,6.4829384E1,8.1823875E1,6.3729534E0],"tree_param":{"num_deleted":"0","num_feature":"34","num_nodes":"27","size_leaf_vector":"1"}},{"base_weights":[2.9431526E-3,2.9784727E-1,-2.0727916E-1,5.70448E-1,1.3181266E-1,-9.816429E-2,-5.616826E-1,5.5851758E-2,3.722E-1,4.398723E-1,-3.906666E-2,-8.3295184E-1,-4.4365413E-2,2.5623897E-2,-6.30774E-1,4.2334065E-2,2.9281874E-3,2.8654313E-4,3.5167646E-2,-2.3611996E-2,4.9134614E-3,6.8121157E-3,-5.179223E-2,4.3239847E-2,-5.2877837E-3,1.0563651E-3,-3.518964E-2],"categories":[],"categories_nodes":[],"categories_segments":[],"categories_sizes":[],"default_left":[0,0,0,0,0,0,0,0,0,0,0,0,0,0,0,0,0,0,0,0,0,0,0,0,0,0,0],"id":31,"left_children":[1,3,5,7,9,11,13,-1,15,17,19,21,23,-1,25,-1,-1,-1,-1,-1,-1,-1,-1,-1,-1,-1,-1],"loss_changes":[1.5495458E1,4.632759E0,5.5881476E0,3.8181543E0,3.4885826E0,4.4217353E0,2.857071E0,0E0,4.440555E0,2.6966443E0,2.624411E0,1.6431828E0,6.0161886E0,0E0,1.563159E0,0E0,0E0,0E0,0E0,0E0,0E0,0E0,0E0,0E0,0E0,0E0,0E0],"parents":[2147483647,0,0,1,1,2,2,3,3,4,4,5,5,6,6,8,8,9,9,10,10,11,11,12,12,14,14],"right_children":[2,4,6,8,10,12,14,-1,16,18,20,22,24,-1,26,-1,-1,-1,-1,-1,-1,-1,-1,-1,-1,-1,-1],"split_conditions":[-1.4362192E-1,4.947566E-1,5.507169E-1,-6.760996E-1,-5.7185537E-1,-4.975925E-2,4.283884E-1,5.5851758E-2,-1.024487E0,4.3913618E-1,-4.522709E-1,4.7341272E-1,4.4715557E-1,2.5623897E-2,4.8659506E-1,4.2334065E-2,2.9281874E-3,2.8654313E-4,3.5167646E-2,-2.3611996E-2,4.9134614E-3,6.8121157E-3,-5.179223E-2,4.3239847E-2,-5.2877837E-3,1.0563651E-3,-3.518964E-2],"split_indices":[18,20,3,4,3,18,28,0,18,13,4,11,22,0,17,0,0,0,0,0,0,0,0,0,0,0,0],"split_type":[0,0,0,0,0,0,0,0,0,0,0,0,0,0,0,0,0,0,0,0,0,0,0,0,0,0,0],"sum_hessian":[2.4794933E2,1.0301749E2,1.4493184E2,3.8072754E1,6.494473E1,1.1179042E2,3.314141E1,8.900035E0,2.9172722E1,2.2609812E1,4.2334923E1,6.63852E0,1.051519E2,1.6150429E0,3.152637E1,1.0933113E1,1.8239609E1,8.925259E0,1.3684552E1,9.6040535E0,3.273087E1,1.2060182E0,5.432502E0,5.823379E0,9.932852E1,3.247128E0,2.8279242E1],"tree_param":{"num_deleted":"0","num_feature":"34","num_nodes":"27","size_leaf_vector":"1"}},{"base_weights":[3.2585713E-3,3.771306E-1,-1.5066583E-1,7.7731407E-1,2.4552512E-1,-1.0660276E-1,-8.8411355E-1,9.1550195E-1,-2.9643146E-2,5.73377E-1,2.149237E-2,9.490229E-1,-1.319812E-1,-4.0568924E-1,-5.505244E-2,5.079147E-2,-1.1895947E-2,-8.878368E-3,4.3815624E-2,-1.0116291E-2,2.7677584E-2,6.038216E-3,6.309367E-2,-1.5824036E-3,-1.7748209E-2,1.2030158E-2,-3.3836987E-2],"categories":[],"categories_nodes":[],"categories_segments":[],"categories_sizes":[],"default_left":[0,0,0,0,0,0,0,0,0,0,0,0,0,0,0,0,0,0,0,0,0,0,0,0,0,0,0],"id":32,"left_children":[1,3,5,7,9,11,13,15,-1,17,19,21,23,25,-1,-1,-1,-1,-1,-1,-1,-1,-1,-1,-1,-1,-1],"loss_changes":[1.4312943E1,3.6290998E0,5.5999975E0,3.8539944E0,4.1040163E0,4.608484E0,5.754304E-1,2.1254845E0,0E0,5.322135E0,4.200387E0,8.9726806E-1,3.6644797E0,9.7842157E-1,0E0,0E0,0E0,0E0,0E0,0E0,0E0,0E0,0E0,0E0,0E0,0E0,0E0],"parents":[2147483647,0,0,1,1,2,2,3,3,4,4,5,5,6,6,7,7,9,9,10,10,11,11,12,12,13,13],"right_children":[2,4,6,8,10,12,14,16,-1,18,20,22,24,26,-1,-1,-1,-1,-1,-1,-1,-1,-1,-1,-1,-1,-1],"split_conditions":[-4.5409077E-1,-6.9776046E-1,1.6732891E0,5.284507E-1,-1.0894688E0,-1.3947204E0,3.2582037E-2,1E0,-2.9643146E-2,-1.267167E0,-6.273757E-1,5.443418E-1,8.311058E-1,2.0080912E0,-5.505244E-2,5.079147E-2,-1.1895947E-2,-8.878368E-3,4.3815624E-2,-1.0116291E-2,2.7677584E-2,6.038216E-3,6.309367E-2,-1.5824036E-3,-1.7748209E-2,1.2030158E-2,-3.3836987E-2],"split_indices":[18,4,3,7,18,14,0,31,0,6,18,0,18,3,0,0,0,0,0,0,0,0,0,0,0,0,0],"split_type":[0,0,0,0,0,0,0,0,0,0,0,0,0,0,0,0,0,0,0,0,0,0,0,0,0,0,0],"sum_hessian":[2.4672565E2,7.1531166E1,1.7519449E2,1.648809E1,5.5043076E1,1.663463E2,8.848183E0,1.5278979E1,1.2091101E0,2.1711252E1,3.333182E1,3.0508356E0,1.6329547E2,3.6558166E0,5.1923656E0,1.416607E1,1.1129097E0,6.3598104E0,1.5351441E1,2.3898369E1,9.433453E0,1.2164222E0,1.8344135E0,1.1340833E2,4.988714E1,1.1133873E0,2.5424292E0],"tree_param":{"num_deleted":"0","num_feature":"34","num_nodes":"27","size_leaf_vector":"1"}},{"base_weights":[3.2988945E-3,2.3661825E-1,-2.2775522E-1,2.940069E-1,-4.7280264E-1,6.1127496E-1,-2.66394E-1,5.825539E-1,1.3319567E-1,3.6174542E-1,-4.122069E-2,3.499979E-2,5.377404E-2,-6.2795304E-2,-2.2745788E-1,4.822929E-2,2.1270195E-2,5.5207796E-2,3.3787698E-3,-1.0068673E-2,4.1930433E-2,-1.4134198E-2,1.9183898E-2,-7.1979254E-3,-3.161053E-2],"categories":[],"categories_nodes":[],"categories_segments":[],"categories_sizes":[],"default_left":[0,0,0,0,0,0,0,0,0,0,0,0,0,0,0,0,0,0,0,0,0,0,0,0,0],"id":33,"left_children":[1,3,5,7,9,11,13,15,17,19,-1,21,-1,-1,23,-1,-1,-1,-1,-1,-1,-1,-1,-1,-1],"loss_changes":[1.3337501E1,5.150438E0,4.1929736E0,5.235243E0,3.1139736E0,1.5075898E0,4.3198357E0,2.0318422E0,4.6924176E0,1.1193336E0,0E0,5.084177E-1,0E0,0E0,3.837264E0,0E0,0E0,0E0,0E0,0E0,0E0,0E0,0E0,0E0,0E0],"parents":[2147483647,0,0,1,1,2,2,3,3,4,4,5,5,6,6,7,7,8,8,9,9,11,11,14,14],"right_children":[2,4,6,8,10,12,14,16,18,20,-1,22,-1,-1,24,-1,-1,-1,-1,-1,-1,-1,-1,-1,-1],"split_conditions":[3.6855704E-1,1.7860162E0,4.4715557E-1,4.8659506E-1,-1.0894688E0,4.4198984E-1,-1.3658223E-2,-6.8331987E-1,-1.3712121E0,4.8303896E-1,-4.122069E-2,-3.656275E-1,5.377404E-2,-6.2795304E-2,1.7335831E0,4.822929E-2,2.1270195E-2,5.5207796E-2,3.3787698E-3,-1.0068673E-2,4.1930433E-2,-1.4134198E-2,1.9183898E-2,-7.1979254E-3,-3.161053E-2],"split_indices":[24,4,22,17,18,0,18,4,10,27,0,4,0,0,24,0,0,0,0,0,0,0,0,0,0],"split_type":[0,0,0,0,0,0,0,0,0,0,0,0,0,0,0,0,0,0,0,0,0,0,0,0,0],"sum_hessian":[2.454062E2,1.2209256E2,1.2331364E2,1.134968E2,8.595763E0,4.776345E0,1.1853729E2,3.9678402E1,7.38184E1,2.5394835E0,6.0562797E0,2.6107278E0,2.165617E0,3.3044052E0,1.1523289E2,1.0067154E1,2.9611248E1,3.6711557E0,7.014725E1,1.4293287E0,1.1101549E0,1.4651167E0,1.1456112E0,9.664994E1,1.8582947E1],"tree_param":{"num_deleted":"0","num_feature":"34","num_nodes":"25","size_leaf_vector":"1"}},{"base_weights":[3.4736097E-3,3.530613E-1,-1.3897976E-1,4.810776E-2,2.6788926E-1,-9.946138E-2,-4.5651317E-2,4.2279434E-1,-3.2597724E-2,-4.063532E-2,-5.783722E-1,-1.9030176E-2,2.507335E-2,-8.3810605E-2,9.345609E-3,4.5865837E-2,-3.3308098E-3,8.381986E-3,-3.715141E-2],"categories":[],"categories_nodes":[],"categories_segments":[],"categories_sizes":[],"default_left":[0,0,0,0,0,0,0,0,0,0,0,0,0,0,0,0,0,0,0],"id":34,"left_children":[1,3,5,-1,7,9,-1,11,13,15,17,-1,-1,-1,-1,-1,-1,-1,-1],"loss_changes":[1.2257097E1,3.4387798E0,5.258816E0,0E0,2.9880877E0,4.6957765E0,0E0,2.8603334E0,8.490296E0,3.8009515E0,2.3662739E0,0E0,0E0,0E0,0E0,0E0,0E0,0E0,0E0],"parents":[2147483647,0,0,1,1,2,2,4,4,5,5,7,7,8,8,9,9,10,10],"right_children":[2,4,6,-1,8,10,-1,12,14,16,18,-1,-1,-1,-1,-1,-1,-1,-1],"split_conditions":[-4.5409077E-1,-1.8259299E0,1.8505373E0,4.810776E-2,1.17443375E-1,1.7335831E0,-4.5651317E-2,-1.408845E0,-1.2963544E0,-1.3947204E0,-7.8623354E-1,-1.9030176E-2,2.507335E-2,-8.3810605E-2,9.345609E-3,4.5865837E-2,-3.3308098E-3,8.381986E-3,-3.715141E-2],"split_indices":[18,18,3,0,3,24,0,21,11,14,0,0,0,0,0,0,0,0,0],"split_type":[0,0,0,0,0,0,0,0,0,0,0,0,0,0,0,0,0,0,0],"sum_hessian":[2.4414145E2,7.025464E1,1.7388681E2,7.355605E0,6.289903E1,1.6651405E2,7.372759E0,4.123487E1,2.1664158E1,1.4926431E2,1.7249735E1,3.3354785E0,3.7899395E1,1.7705715E0,1.9893587E1,3.0354524E0,1.4622887E2,3.1156137E0,1.4134121E1],"tree_param":{"num_deleted":"0","num_feature":"34","num_nodes":"19","size_leaf_vector":"1"}},{"base_weights":[3.115506E-3,1.6754705E-1,-2.821533E-1,8.995431E-1,1.11736864E-1,-2.3210818E-1,-5.165137E-2,5.4487444E-2,-1.0444051E-2,3.7059098E-1,-5.7422932E-2,-1.772354E-1,-8.23874E-1,3.605831E-2,1.3014667E-2,5.6020595E-4,-4.3465864E-2,-1.3366744E-2,9.542643E-3,-5.1158678E-2,9.864229E-5],"categories":[],"categories_nodes":[],"categories_segments":[],"categories_sizes":[],"default_left":[0,0,0,0,0,0,0,0,0,0,0,0,0,0,0,0,0,0,0,0,0],"id":35,"left_children":[1,3,5,7,9,11,-1,-1,-1,13,15,17,19,-1,-1,-1,-1,-1,-1,-1,-1],"loss_changes":[1.1488139E1,6.2459297E0,3.1255026E0,2.5179577E0,6.3917513E0,2.6221843E0,0E0,0E0,0E0,2.0408144E0,4.9604125E0,2.6806176E0,1.1475792E0,0E0,0E0,0E0,0E0,0E0,0E0,0E0,0E0],"parents":[2147483647,0,0,1,1,2,2,3,3,4,4,5,5,9,9,10,10,11,11,12,12],"right_children":[2,4,6,8,10,12,-1,-1,-1,14,16,18,20,-1,-1,-1,-1,-1,-1,-1,-1],"split_conditions":[6.87256E-1,-1.3947204E0,2.0080912E0,1.4250022E0,-5.127726E-1,1.3631574E0,-5.165137E-2,5.4487444E-2,-1.0444051E-2,4.411664E-1,1.0510701E0,6.466937E-1,4.1970825E0,3.605831E-2,1.3014667E-2,5.6020595E-4,-4.3465864E-2,-1.3366744E-2,9.542643E-3,-5.1158678E-2,9.864229E-5],"split_indices":[7,14,3,4,3,0,0,0,0,19,24,0,2,0,0,0,0,0,0,0,0],"split_type":[0,0,0,0,0,0,0,0,0,0,0,0,0,0,0,0,0,0,0,0,0],"sum_hessian":[2.4290427E2,1.5434885E2,8.855541E1,9.863473E0,1.4448538E2,8.424938E1,4.306034E0,8.433187E0,1.430287E0,5.663294E1,8.785244E1,7.828933E1,5.9600472E0,1.2228127E1,4.440481E1,8.1914635E1,5.9378037E0,6.3114166E1,1.5175166E1,4.6088634E0,1.3511838E0],"tree_param":{"num_deleted":"0","num_feature":"34","num_nodes":"21","size_leaf_vector":"1"}},{"base_weights":[2.7371158E-3,3.300291E-1,-1.2939566E-1,5.810524E-1,1.3473561E-1,-9.240584E-2,-8.789929E-1,6.756084E-1,-3.8684547E-1,2.5070196E-1,-7.404251E-1,-5.9933048E-2,-8.0937904E-1,-5.7917517E-3,-5.366505E-2,4.588437E-2,2.1755049E-2,1.6835248E-2,-4.5918304E-2,4.8177302E-2,7.9128975E-3,1.5442893E-2,-5.5176903E-2,4.2559188E-2,-4.1327616E-3,-5.1161688E-2,-7.90016E-3],"categories":[],"categories_nodes":[],"categories_segments":[],"categories_sizes":[],"default_left":[0,0,0,0,0,0,0,0,0,0,0,0,0,0,0,0,0,0,0,0,0,0,0,0,0,0,0],"id":36,"left_children":[1,3,5,7,9,11,13,15,17,19,21,23,25,-1,-1,-1,-1,-1,-1,-1,-1,-1,-1,-1,-1,-1,-1],"loss_changes":[1.0542111E1,3.3585963E0,4.734373E0,3.0412693E0,4.319539E0,3.830904E0,1.0693555E0,1.232996E0,1.5934063E0,2.2668772E0,2.2530549E0,3.392835E0,8.328972E-1,0E0,0E0,0E0,0E0,0E0,0E0,0E0,0E0,0E0,0E0,0E0,0E0,0E0,0E0],"parents":[2147483647,0,0,1,1,2,2,3,3,4,4,5,5,6,6,7,7,8,8,9,9,10,10,11,11,12,12],"right_children":[2,4,6,8,10,12,14,16,18,20,22,24,26,-1,-1,-1,-1,-1,-1,-1,-1,-1,-1,-1,-1,-1,-1],"split_conditions":[-4.5409077E-1,4.8659506E-1,1.8505373E0,1.7860162E0,1.7725651E0,1.538686E0,1.1434113E0,4.947566E-1,-7.589449E-1,-1.0515542E0,-8.2788056E-1,-1.3947204E0,1.6830901E0,-5.7917517E-3,-5.366505E-2,4.588437E-2,2.1755049E-2,1.6835248E-2,-4.5918304E-2,4.8177302E-2,7.9128975E-3,1.5442893E-2,-5.5176903E-2,4.2559188E-2,-4.1327616E-3,-5.1161688E-2,-7.90016E-3],"split_indices":[18,17,3,4,0,18,4,20,6,4,3,14,18,0,0,0,0,0,0,0,0,0,0,0,0,0,0],"split_type":[0,0,0,0,0,0,0,0,0,0,0,0,0,0,0,0,0,0,0,0,0,0,0,0,0,0,0],"sum_hessian":[2.417833E2,6.91073E1,1.7267601E2,2.9374754E1,3.9732544E1,1.6562624E2,7.0497627E0,2.7035576E1,2.3391786E0,3.5713707E1,4.018838E0,1.5948645E2,6.1397896E0,1.7545989E0,5.2951636E0,1.2070535E1,1.4965042E1,1.1458614E0,1.1933173E0,3.0180707E0,3.2695633E1,1.0716168E0,2.947221E0,2.993469E0,1.5649298E2,4.192469E0,1.9473202E0],"tree_param":{"num_deleted":"0","num_feature":"34","num_nodes":"27","size_leaf_vector":"1"}},{"base_weights":[2.5290374E-3,2.0654307E-1,-1.9826257E-1,6.3602555E-1,1.1778703E-1,5.879157E-1,-2.3516281E-1,8.3492726E-1,1.6684085E-1,5.311552E-1,-7.6981247E-3,5.9787013E-2,4.2605586E-2,-6.087796E-2,-1.9674616E-1,5.1339168E-2,1.3817089E-2,-2.851761E-2,3.003185E-2,3.1961303E-2,-1.2598674E-2,4.1597467E-3,-3.4881603E-2,-2.1351552E-2,3.139744E-2,-4.133366E-3,-2.4983943E-2],"categories":[],"categories_nodes":[],"categories_segments":[],"categories_sizes":[],"default_left":[0,0,0,0,0,0,0,0,0,0,0,0,0,0,0,0,0,0,0,0,0,0,0,0,0,0,0],"id":37,"left_children":[1,3,5,7,9,11,13,15,17,19,21,-1,23,-1,25,-1,-1,-1,-1,-1,-1,-1,-1,-1,-1,-1,-1],"loss_changes":[9.940033E0,4.512866E0,3.6861353E0,1.7630692E0,5.2414894E0,1.8610616E0,4.196048E0,1.2237158E0,2.6830466E0,2.1522627E0,4.97711E0,0E0,1.3890783E0,0E0,3.908658E0,0E0,0E0,0E0,0E0,0E0,0E0,0E0,0E0,0E0,0E0,0E0,0E0],"parents":[2147483647,0,0,1,1,2,2,3,3,4,4,5,5,6,6,7,7,8,8,9,9,10,10,12,12,14,14],"right_children":[2,4,6,8,10,12,14,16,18,20,22,-1,24,-1,26,-1,-1,-1,-1,-1,-1,-1,-1,-1,-1,-1,-1],"split_conditions":[3.6855704E-1,-8.92708E-1,4.4715557E-1,2.1084036E-1,-1.0894688E0,5.284507E-1,-1.3658223E-2,-1.0226731E0,-3.4578767E-1,1.8749171E0,1.5405266E0,5.9787013E-2,4.4198984E-1,-6.087796E-2,4.3255135E-1,5.1339168E-2,1.3817089E-2,-2.851761E-2,3.003185E-2,3.1961303E-2,-1.2598674E-2,4.1597467E-3,-3.4881603E-2,-2.1351552E-2,3.139744E-2,-4.133366E-3,-2.4983943E-2],"split_indices":[24,4,22,7,18,7,18,4,18,0,4,0,0,0,3,0,0,0,0,0,0,0,0,0,0,0,0],"split_type":[0,0,0,0,0,0,0,0,0,0,0,0,0,0,0,0,0,0,0,0,0,0,0,0,0,0,0],"sum_hessian":[2.4065146E2,1.19353676E2,1.2129778E2,1.9385069E1,9.9968605E1,4.7685633E0,1.1652922E2,1.3066326E1,6.318743E0,2.252729E1,7.7441315E1,1.6909696E0,3.0775938E0,3.2302873E0,1.1329893E2,9.101926E0,3.9644012E0,2.22418E0,4.0945635E0,1.9957E1,2.5702887E0,6.920372E1,8.237598E0,1.8576287E0,1.219965E0,8.322923E1,3.0069696E1],"tree_param":{"num_deleted":"0","num_feature":"34","num_nodes":"27","size_leaf_vector":"1"}},{"base_weights":[2.5861165E-3,1.5221226E-1,-2.5668475E-1,3.9133793E-1,4.0427144E-3,-1.08082816E-1,-4.784486E-1,-6.3283205E-2,5.4584444E-1,5.581846E-1,-1.1474753E-1,-2.650944E-1,3.049922E-1,-6.123578E-1,1.13690525E-1,3.608374E-2,-2.5257885E-2,5.5519785E-3,3.483432E-2,3.298032E-2,-1.4248269E-2,-3.4796272E-3,-4.9059045E-2,6.863256E-3,-2.7458087E-2,-1.6227107E-2,2.866152E-2,-4.1877862E-2,-1.4494121E-2,4.8984E-2,-2.4941476E-2],"categories":[],"categories_nodes":[],"categories_segments":[],"categories_sizes":[],"default_left":[0,0,0,0,0,0,0,0,0,0,0,0,0,0,0,0,0,0,0,0,0,0,0,0,0,0,0,0,0,0,0],"id":38,"left_children":[1,3,5,7,9,11,13,15,17,19,21,23,25,27,29,-1,-1,-1,-1,-1,-1,-1,-1,-1,-1,-1,-1,-1,-1,-1,-1],"loss_changes":[9.364318E0,5.4210377E0,2.8592868E0,4.1466055E0,6.350843E0,3.5950565E0,2.8567915E0,5.825851E0,2.7950926E0,1.6442399E0,3.041102E0,4.623881E0,2.7845426E0,1.850441E0,4.3748727E0,0E0,0E0,0E0,0E0,0E0,0E0,0E0,0E0,0E0,0E0,0E0,0E0,0E0,0E0,0E0,0E0],"parents":[2147483647,0,0,1,1,2,2,3,3,4,4,5,5,6,6,7,7,8,8,9,9,10,10,11,11,12,12,13,13,14,14],"right_children":[2,4,6,8,10,12,14,16,18,20,22,24,26,28,30,-1,-1,-1,-1,-1,-1,-1,-1,-1,-1,-1,-1,-1,-1,-1,-1],"split_conditions":[6.87256E-1,-5.324668E-1,-4.6134586E-3,4.3913618E-1,-9.9607915E-1,-2.3705311E-1,1.3202245E0,4.8659506E-1,4.7341272E-1,1.3631574E0,1.1632353E0,-9.071486E-1,-8.638269E-1,9.755397E-1,5.310226E-1,3.608374E-2,-2.5257885E-2,5.5519785E-3,3.483432E-2,3.298032E-2,-1.4248269E-2,-3.4796272E-3,-4.9059045E-2,6.863256E-3,-2.7458087E-2,-1.6227107E-2,2.866152E-2,-4.1877862E-2,-1.4494121E-2,4.8984E-2,-2.4941476E-2],"split_indices":[7,3,4,13,7,3,1,17,11,0,18,4,4,4,3,0,0,0,0,0,0,0,0,0,0,0,0,0,0,0,0],"split_type":[0,0,0,0,0,0,0,0,0,0,0,0,0,0,0,0,0,0,0,0,0,0,0,0,0,0,0,0,0,0,0],"sum_hessian":[2.393805E2,1.520467E2,8.733378E1,5.7541435E1,9.450528E1,5.318343E1,3.415035E1,1.4745267E1,4.279617E1,1.6029716E1,7.847556E1,3.879538E1,1.4388048E1,2.7823961E1,6.326389E0,5.0828104E0,9.6624565E0,1.1469949E1,3.1326218E1,1.4502868E1,1.5268483E0,7.561513E1,2.8604329E0,1.6268745E1,2.2526636E1,4.236173E0,1.0151875E1,1.5442483E1,1.2381478E1,2.3725786E0,3.95381E0],"tree_param":{"num_deleted":"0","num_feature":"34","num_nodes":"31","size_leaf_vector":"1"}},{"base_weights":[2.3574312E-3,3.555336E-1,-9.895644E-2,4.5683395E-2,2.5705963E-1,-2.7162176E-2,-4.3025875E-1,-5.155438E-1,3.2853287E-1,7.651848E-2,-2.9914695E-1,1.630914E-1,-5.9249717E-1,1.3579343E-2,-6.310961E-2,2.0928334E-2,-2.9821942E-2,-4.1683213E-4,2.6079072E-2,-1.842438E-2,2.5368014E-2,-1.46486955E-2,4.827888E-2,8.009051E-3,-3.577445E-2],"categories":[],"categories_nodes":[],"categories_segments":[],"categories_sizes":[],"default_left":[0,0,0,0,0,0,0,0,0,0,0,0,0,0,0,0,0,0,0,0,0,0,0,0,0],"id":39,"left_children":[1,3,5,-1,7,9,11,13,15,17,19,21,23,-1,-1,-1,-1,-1,-1,-1,-1,-1,-1,-1,-1],"loss_changes":[8.600188E0,2.7098284E0,4.4312606E0,0E0,2.7610664E0,4.38226E0,3.2927423E0,2.907195E0,3.87812E0,4.2613435E0,2.584367E0,3.1789742E0,2.5482063E0,0E0,0E0,0E0,0E0,0E0,0E0,0E0,0E0,0E0,0E0,0E0,0E0],"parents":[2147483647,0,0,1,1,2,2,4,4,5,5,6,6,7,7,8,8,9,9,10,10,11,11,12,12],"right_children":[2,4,6,-1,8,10,12,14,16,18,20,22,24,-1,-1,-1,-1,-1,-1,-1,-1,-1,-1,-1,-1],"split_conditions":[-3.13956E-1,-1.8259299E0,7.673536E-1,4.5683395E-2,-1.5613974E0,1.0510701E0,-4.791777E-1,3.3963788E-1,1.9015408E0,4.7914538E-1,2.1119633E0,1.0134462E0,4.8659506E-1,1.3579343E-2,-6.310961E-2,2.0928334E-2,-2.9821942E-2,-4.1683213E-4,2.6079072E-2,-1.842438E-2,2.5368014E-2,-1.46486955E-2,4.827888E-2,8.009051E-3,-3.577445E-2],"split_indices":[24,18,3,0,26,24,0,0,4,4,1,4,17,0,0,0,0,0,0,0,0,0,0,0,0],"split_type":[0,0,0,0,0,0,0,0,0,0,0,0,0,0,0,0,0,0,0,0,0,0,0,0,0],"sum_hessian":[2.3836868E2,5.2577248E1,1.8579144E2,6.6436815E0,4.5933567E1,1.5358998E2,3.2201458E1,3.3633788E0,4.2570187E1,1.11720695E2,4.186929E1,6.913101E0,2.5288355E1,1.9470357E0,1.416343E0,3.929301E1,3.277176E0,9.4655136E1,1.7065557E1,3.9054615E1,2.8146713E0,4.812819E0,2.1002824E0,3.5093942E0,2.1778961E1],"tree_param":{"num_deleted":"0","num_feature":"34","num_nodes":"25","size_leaf_vector":"1"}},{"base_weights":[2.3571085E-3,1.4091992E-1,-2.3814234E-1,8.379231E-1,8.9726806E-2,-1.9192414E-1,-4.8971783E-2,4.9778458E-2,3.267197E-4,3.281765E-1,-5.808088E-2,-1.4011547E-1,-4.3095786E-2,-8.667321E-3,2.478466E-2,4.496228E-2,-5.047637E-3,-8.35661E-3,4.358011E-2],"categories":[],"categories_nodes":[],"categories_segments":[],"categories_sizes":[],"default_left":[0,0,0,0,0,0,0,0,0,0,0,0,0,0,0,0,0,0,0],"id":40,"left_children":[1,3,5,7,9,11,-1,-1,-1,13,15,17,-1,-1,-1,-1,-1,-1,-1],"loss_changes":[7.967761E0,5.3372755E0,2.8065815E0,1.338067E0,5.0389004E0,2.7782485E0,0E0,0E0,0E0,4.677502E0,3.734332E0,2.2972746E0,0E0,0E0,0E0,0E0,0E0,0E0,0E0],"parents":[2147483647,0,0,1,1,2,2,3,3,4,4,5,5,9,9,10,10,11,11],"right_children":[2,4,6,8,10,12,-1,-1,-1,14,16,18,-1,-1,-1,-1,-1,-1,-1],"split_conditions":[6.87256E-1,-1.3947204E0,2.0080912E0,6.097996E-1,-5.324668E-1,1.538686E0,-4.8971783E-2,4.9778458E-2,3.267197E-4,4.3913618E-1,-1.8259299E0,1.0908712E1,-4.3095786E-2,-8.667321E-3,2.478466E-2,4.496228E-2,-5.047637E-3,-8.35661E-3,4.358011E-2],"split_indices":[7,14,3,3,3,18,0,0,0,13,18,5,0,0,0,0,0,0,0],"split_type":[0,0,0,0,0,0,0,0,0,0,0,0,0,0,0,0,0,0,0],"sum_hessian":[2.3709073E2,1.5068703E2,8.640369E1,9.258811E0,1.4142822E2,8.251777E1,3.8859193E0,7.6170125E0,1.641798E0,5.365285E1,8.7775375E1,7.771723E1,4.8005366E0,1.3425093E1,4.022776E1,2.9061432E0,8.486923E1,7.650896E1,1.2082777E0],"tree_param":{"num_deleted":"0","num_feature":"34","num_nodes":"19","size_leaf_vector":"1"}},{"base_weights":[2.46788E-3,5.182676E-1,-5.9941385E-2,2.793206E-1,7.719795E-1,3.1556377E-1,-1.2098784E-1,6.791984E-1,-4.1769263E-1,1.8425177E-1,4.4176627E-2,-1.19376116E-1,4.901968E-1,-9.551648E-2,-7.65153E-1,-8.222509E-3,4.611461E-2,-4.2128485E-2,2.9551848E-3,3.1826973E-2,-1.8877788E-2,1.733452E-2,-3.1639274E-2,5.6119967E-2,1.3636126E-2,-5.5674724E-3,4.1546825E-2,-4.9316876E-2,-5.527841E-3],"categories":[],"categories_nodes":[],"categories_segments":[],"categories_sizes":[],"default_left":[0,0,0,0,0,0,0,0,0,0,0,0,0,0,0,0,0,0,0,0,0,0,0,0,0,0,0,0,0],"id":41,"left_children":[1,3,5,7,9,11,13,15,17,19,-1,21,23,25,27,-1,-1,-1,-1,-1,-1,-1,-1,-1,-1,-1,-1,-1,-1],"loss_changes":[7.6678376E0,1.3429923E0,4.9099607E0,4.4107394E0,6.1757994E-1,2.3368824E0,2.9382222E0,2.15944E0,1.2687669E0,1.0438561E0,0E0,2.468073E0,2.6634493E0,2.698985E0,8.810587E-1,0E0,0E0,0E0,0E0,0E0,0E0,0E0,0E0,0E0,0E0,0E0,0E0,0E0,0E0],"parents":[2147483647,0,0,1,1,2,2,3,3,4,4,5,5,6,6,7,7,8,8,9,9,11,11,12,12,13,13,14,14],"right_children":[2,4,6,8,10,12,14,16,18,20,-1,22,24,26,28,-1,-1,-1,-1,-1,-1,-1,-1,-1,-1,-1,-1,-1,-1],"split_conditions":[-9.643181E-1,4.8303896E-1,4.6084177E-1,-1.1688911E0,-1.4504791E0,-9.2340416E-1,1.538686E0,-1.4932576E0,-8.800829E-1,-1.5360168E0,4.4176627E-2,-1.0894688E0,-5.6961405E-1,1.0908712E1,1.6830901E0,-8.222509E-3,4.611461E-2,-4.2128485E-2,2.9551848E-3,3.1826973E-2,-1.8877788E-2,1.733452E-2,-3.1639274E-2,5.6119967E-2,1.3636126E-2,-5.5674724E-3,4.1546825E-2,-4.9316876E-2,-5.527841E-3],"split_indices":[7,27,15,18,18,18,18,15,18,7,0,18,18,5,18,0,0,0,0,0,0,0,0,0,0,0,0,0,0],"split_type":[0,0,0,0,0,0,0,0,0,0,0,0,0,0,0,0,0,0,0,0,0,0,0,0,0,0,0,0,0],"sum_hessian":[2.3623549E2,2.4709795E1,2.115257E2,1.3807125E1,1.0902671E1,2.899629E1,1.825294E2,8.789902E0,5.0172234E0,2.1622648E0,8.740406E0,8.397629E0,2.0598661E1,1.7669102E2,5.838377E0,2.0385828E0,6.751319E0,2.2473996E0,2.7698238E0,1.1241988E0,1.0380659E0,4.571976E0,3.825653E0,4.2071924E0,1.639147E1,1.7458717E2,2.103863E0,3.9850595E0,1.8533175E0],"tree_param":{"num_deleted":"0","num_feature":"34","num_nodes":"29","size_leaf_vector":"1"}},{"base_weights":[2.788525E-3,1.7827085E-1,-1.6920266E-1,5.9815156E-1,9.235451E-2,-9.250748E-1,-1.3196355E-1,7.9396516E-1,1.550573E-1,4.7214964E-1,-1.7435485E-2,-6.0575325E-2,1.5270946E-3,6.8528056E-1,-1.7105745E-1,4.4692166E-2,-5.1933858E-3,-3.1860515E-2,3.4017783E-2,-1.119691E-2,3.7885707E-2,3.3764434E-3,-3.334484E-2,5.516372E-2,-4.0184283E-3,-5.1678278E-2,-6.606055E-3],"categories":[],"categories_nodes":[],"categories_segments":[],"categories_sizes":[],"default_left":[0,0,0,0,0,0,0,0,0,0,0,0,0,0,0,0,0,0,0,0,0,0,0,0,0,0,0],"id":42,"left_children":[1,3,5,7,9,11,13,15,17,19,21,-1,-1,23,25,-1,-1,-1,-1,-1,-1,-1,-1,-1,-1,-1,-1],"loss_changes":[7.1696806E0,4.1862426E0,3.2550688E0,1.5938716E0,4.12739E0,1.5334153E0,3.8077178E0,1.3017731E0,3.474825E0,4.5802712E0,4.3269553E0,0E0,0E0,1.8402667E0,3.5924234E0,0E0,0E0,0E0,0E0,0E0,0E0,0E0,0E0,0E0,0E0,0E0,0E0],"parents":[2147483647,0,0,1,1,2,2,3,3,4,4,5,5,6,6,7,7,8,8,9,9,10,10,13,13,14,14],"right_children":[2,4,6,8,10,12,14,16,18,20,22,-1,-1,24,26,-1,-1,-1,-1,-1,-1,-1,-1,-1,-1,-1,-1],"split_conditions":[3.6855704E-1,-8.92708E-1,4.2678365E-1,2.1084036E-1,-1.0894688E0,4.4198984E-1,4.4715557E-1,1.17443375E-1,-2.507229E-1,-1.267167E0,1.5405266E0,-6.0575325E-2,1.5270946E-3,6.87256E-1,8.002395E-3,4.4692166E-2,-5.1933858E-3,-3.1860515E-2,3.4017783E-2,-1.119691E-2,3.7885707E-2,3.3764434E-3,-3.334484E-2,5.516372E-2,-4.0184283E-3,-5.1678278E-2,-6.606055E-3],"split_indices":[24,4,21,7,18,0,22,3,6,6,4,0,0,7,18,0,0,0,0,0,0,0,0,0,0,0,0],"split_type":[0,0,0,0,0,0,0,0,0,0,0,0,0,0,0,0,0,0,0,0,0,0,0,0,0,0,0],"sum_hessian":[2.3555344E2,1.1657532E2,1.1897812E2,1.8789133E1,9.778619E1,4.46697E0,1.1451115E2,1.2481435E1,6.307699E0,2.1188522E1,7.6597664E1,3.230809E0,1.2361609E0,4.4731174E0,1.1003803E2,1.1235951E1,1.2454833E0,2.4298685E0,3.877831E0,6.2265596E0,1.4961964E1,6.852858E1,8.069078E0,2.60823E0,1.8648871E0,3.6495304E0,1.06388504E2],"tree_param":{"num_deleted":"0","num_feature":"34","num_nodes":"27","size_leaf_vector":"1"}},{"base_weights":[2.581381E-3,4.9315098E-1,-5.5659387E-2,2.577011E-1,7.4519646E-1,4.4572002E-1,-9.732498E-2,6.53858E-1,-4.079403E-1,1.6046216E-1,8.580033E-1,7.065305E-1,-5.3020835E-1,2.6819345E-1,-1.582809E-1,-8.799811E-3,4.509716E-2,9.0692965E-3,-3.8395375E-2,3.0713884E-2,-1.9509941E-2,5.0322294E-2,8.007479E-3,6.0980157E-3,5.1366147E-2,3.2761444E-3,-4.151001E-2,-4.311731E-2,1.7755458E-2,1.7899022E-2,-1.0024947E-2],"categories":[],"categories_nodes":[],"categories_segments":[],"categories_sizes":[],"default_left":[0,0,0,0,0,0,0,0,0,0,0,0,0,0,0,0,0,0,0,0,0,0,0,0,0,0,0,0,0,0,0],"id":43,"left_children":[1,3,5,7,9,11,13,15,17,19,21,23,25,27,29,-1,-1,-1,-1,-1,-1,-1,-1,-1,-1,-1,-1,-1,-1,-1,-1],"loss_changes":[6.756032E0,1.2971072E0,4.459778E0,4.091007E0,6.2688637E-1,4.5488834E0,4.409642E0,2.1095605E0,1.4177729E0,1.0155095E0,8.215275E-1,2.3819284E0,7.745744E-1,3.095556E0,3.7470007E0,0E0,0E0,0E0,0E0,0E0,0E0,0E0,0E0,0E0,0E0,0E0,0E0,0E0,0E0,0E0,0E0],"parents":[2147483647,0,0,1,1,2,2,3,3,4,4,5,5,6,6,7,7,8,8,9,9,10,10,11,11,12,12,13,13,14,14],"right_children":[2,4,6,8,10,12,14,16,18,20,22,24,26,28,30,-1,-1,-1,-1,-1,-1,-1,-1,-1,-1,-1,-1,-1,-1,-1,-1],"split_conditions":[-9.643181E-1,4.8303896E-1,-1.278993E0,-1.1688911E0,-1.4504791E0,1.0765928E0,4.6084177E-1,-1.4932576E0,-4.450506E-1,4.354573E-1,1.1434113E0,-1.6075158E0,-5.815297E-1,-1.8097531E0,-1.4003452E0,-8.799811E-3,4.509716E-2,9.0692965E-3,-3.8395375E-2,3.0713884E-2,-1.9509941E-2,5.0322294E-2,8.007479E-3,6.0980157E-3,5.1366147E-2,3.2761444E-3,-4.151001E-2,-4.311731E-2,1.7755458E-2,1.7899022E-2,-1.0024947E-2],"split_indices":[7,27,4,18,18,18,15,15,4,23,4,4,0,0,0,0,0,0,0,0,0,0,0,0,0,0,0,0,0,0,0],"split_type":[0,0,0,0,0,0,0,0,0,0,0,0,0,0,0,0,0,0,0,0,0,0,0,0,0,0,0,0,0,0,0],"sum_hessian":[2.3450273E2,2.4093401E1,2.1040933E2,1.3502445E1,1.0590956E1,1.5399783E1,1.9500954E2,8.475781E0,5.0266643E0,2.1045372E0,8.486419E0,1.2370018E1,3.0297644E0,2.738675E1,1.6762279E2,2.0175576E0,6.458224E0,2.0942056E0,2.9324586E0,1.0903888E0,1.0141485E0,6.63324E0,1.853178E0,4.872037E0,7.4979815E0,1.276481E0,1.7532835E0,1.3182478E0,2.6068502E1,1.2105989E1,1.555168E2],"tree_param":{"num_deleted":"0","num_feature":"34","num_nodes":"31","size_leaf_vector":"1"}},{"base_weights":[2.839725E-3,8.009295E-1,-3.2001384E-2,5.007742E-2,-1.363674E-2,4.800308E-2,-3.0560613E-1,3.4119287E-1,-1.944931E-2,-6.2276028E-2,-5.475056E-1,4.9476404E-2,6.880395E-3,-1.3706351E-2,3.972999E-3,-4.1677967E-2,9.134532E-3,2.5086864E-3,-3.9345898E-2],"categories":[],"categories_nodes":[],"categories_segments":[],"categories_sizes":[],"default_left":[0,0,0,0,0,0,0,0,0,0,0,0,0,0,0,0,0,0,0],"id":44,"left_children":[1,3,5,-1,-1,7,9,11,13,15,17,-1,-1,-1,-1,-1,-1,-1,-1],"loss_changes":[6.5532527E0,2.3965516E0,4.959422E0,0E0,0E0,3.4803576E0,2.9822426E0,4.2072077E0,3.6426854E0,5.1922555E0,3.698278E0,0E0,0E0,0E0,0E0,0E0,0E0,0E0,0E0],"parents":[2147483647,0,0,1,1,2,2,5,5,6,6,7,7,8,8,9,9,10,10],"right_children":[2,4,6,-1,-1,8,10,12,14,16,18,-1,-1,-1,-1,-1,-1,-1,-1],"split_conditions":[-1.3947204E0,1.4250022E0,1.0510701E0,5.007742E-2,-1.363674E-2,-8.92708E-1,1.3493398E-1,4.947566E-1,-3.5840723E-1,9.394089E-1,1.0765928E0,4.9476404E-2,6.880395E-3,-1.3706351E-2,3.972999E-3,-4.1677967E-2,9.134532E-3,2.5086864E-3,-3.9345898E-2],"split_indices":[14,4,24,0,0,4,0,20,4,18,18,0,0,0,0,0,0,0,0],"split_type":[0,0,0,0,0,0,0,0,0,0,0,0,0,0,0,0,0,0,0],"sum_hessian":[2.3375305E2,8.85803E0,2.2489502E2,7.520045E0,1.337986E0,1.7465028E2,5.0244743E1,3.1906525E1,1.4274376E2,2.567517E1,2.4569572E1,6.7022076E0,2.5204317E1,3.943433E1,1.03309425E2,5.6098094E0,2.0065363E1,7.2530837E0,1.7316488E1],"tree_param":{"num_deleted":"0","num_feature":"34","num_nodes":"19","size_leaf_vector":"1"}},{"base_weights":[2.7562378E-3,7.7947414E-1,-3.060785E-2,4.896715E-2,-1.3221979E-2,4.592536E-2,-2.9443863E-1,3.2772017E-1,-1.8532647E-2,6.983281E-2,-4.4561836E-1,4.455578E-2,5.525522E-3,-2.9693958E-3,2.822805E-2,-7.3026204E-3,2.8862199E-2,3.7399363E-2,-2.5106495E-2],"categories":[],"categories_nodes":[],"categories_segments":[],"categories_sizes":[],"default_left":[0,0,0,0,0,0,0,0,0,0,0,0,0,0,0,0,0,0,0],"id":45,"left_children":[1,3,5,-1,-1,7,9,11,13,15,17,-1,-1,-1,-1,-1,-1,-1,-1],"loss_changes":[6.0880766E0,2.2777686E0,4.5634084E0,0E0,0E0,3.1943977E0,2.8288455E0,3.9068637E0,3.4592066E0,1.8112177E0,2.8064342E0,0E0,0E0,0E0,0E0,0E0,0E0,0E0,0E0],"parents":[2147483647,0,0,1,1,2,2,5,5,6,6,7,7,8,8,9,9,10,10],"right_children":[2,4,6,-1,-1,8,10,12,14,16,18,-1,-1,-1,-1,-1,-1,-1,-1],"split_conditions":[-1.3947204E0,1.4250022E0,1.0510701E0,4.896715E-2,-1.3221979E-2,-8.92708E-1,-5.6057507E-1,4.7772533E-1,6.722613E-1,-8.349458E-1,4.8659506E-1,4.455578E-2,5.525522E-3,-2.9693958E-3,2.822805E-2,-7.3026204E-3,2.8862199E-2,3.7399363E-2,-2.5106495E-2],"split_indices":[14,4,24,0,0,4,4,9,18,4,17,0,0,0,0,0,0,0,0],"split_type":[0,0,0,0,0,0,0,0,0,0,0,0,0,0,0,0,0,0,0],"sum_hessian":[2.3300887E2,8.675688E0,2.2433318E2,7.3334684E0,1.3422191E0,1.7453052E2,4.9802666E1,3.1730074E1,1.4280045E2,1.4764737E1,3.5037926E1,7.965839E0,2.3764235E1,1.3428941E2,8.511024E0,1.0857446E1,3.9072914E0,1.0307615E0,3.4007168E1],"tree_param":{"num_deleted":"0","num_feature":"34","num_nodes":"19","size_leaf_vector":"1"}},{"base_weights":[3.2463202E-3,3.0223417E-1,-8.002789E-2,5.342812E-1,1.16111115E-1,-1.2918061E-2,-3.802371E-1,-1.2250216E-2,6.1840194E-1,3.4338275E-1,-2.721072E-1,-6.48057E-2,4.4860968E-1,1.358857E-1,-5.23103E-1,3.947429E-2,1.5571628E-3,-3.0683974E-2,2.2290282E-2,-2.8529871E-2,1.3535651E-2,1.3436171E-2,-7.167733E-3,2.908566E-2,-3.4675345E-2,-1.575986E-2,4.7705986E-2,4.01012E-3,-3.1976484E-2],"categories":[],"categories_nodes":[],"categories_segments":[],"categories_sizes":[],"default_left":[0,0,0,0,0,0,0,0,0,0,0,0,0,0,0,0,0,0,0,0,0,0,0,0,0,0,0,0,0],"id":46,"left_children":[1,3,5,7,9,11,13,-1,15,17,19,21,23,25,27,-1,-1,-1,-1,-1,-1,-1,-1,-1,-1,-1,-1,-1,-1],"loss_changes":[5.833051E0,2.1420965E0,3.6874752E0,1.6223559E0,2.7048197E0,3.6409283E0,2.5374904E0,0E0,2.0385623E0,2.146878E0,2.015623E0,3.6134048E0,2.7398126E0,3.270223E0,1.9059048E0,0E0,0E0,0E0,0E0,0E0,0E0,0E0,0E0,0E0,0E0,0E0,0E0,0E0,0E0],"parents":[2147483647,0,0,1,1,2,2,3,3,4,4,5,5,6,6,8,8,9,9,10,10,11,11,12,12,13,13,14,14],"right_children":[2,4,6,8,10,12,14,-1,16,18,20,22,24,26,28,-1,-1,-1,-1,-1,-1,-1,-1,-1,-1,-1,-1,-1,-1],"split_conditions":[-3.13956E-1,4.147741E-1,7.279651E-1,-1.5613974E0,5.8360625E-2,7.679566E-1,-4.791777E-1,-1.2250216E-2,2.574992E-1,-1.5255896E0,-2.507229E-1,-1.0226731E0,1.7821654E0,1.0134462E0,4.8659506E-1,3.947429E-2,1.5571628E-3,-3.0683974E-2,2.2290282E-2,-2.8529871E-2,1.3535651E-2,1.3436171E-2,-7.167733E-3,2.908566E-2,-3.4675345E-2,-1.575986E-2,4.7705986E-2,4.01012E-3,-3.1976484E-2],"split_indices":[24,12,3,26,3,4,0,0,6,22,6,4,6,4,17,0,0,0,0,0,0,0,0,0,0,0,0,0,0],"split_type":[0,0,0,0,0,0,0,0,0,0,0,0,0,0,0,0,0,0,0,0,0,0,0,0,0,0,0,0,0],"sum_hessian":[2.3230664E2,5.003424E1,1.822724E2,2.1437134E1,2.8597107E1,1.4982338E2,3.244902E1,1.9022611E0,1.9534874E1,1.811038E1,1.0486728E1,1.3545439E2,1.4368988E1,7.0453987E0,2.5403622E1,1.486109E1,4.6737833E0,1.2682205E0,1.684216E1,6.733104E0,3.7536237E0,2.5358364E1,1.1009602E2,1.3308654E1,1.0603346E0,4.9379487E0,2.10745E0,4.1597195E0,2.1243902E1],"tree_param":{"num_deleted":"0","num_feature":"34","num_nodes":"29","size_leaf_vector":"1"}},{"base_weights":[3.151832E-3,7.5891936E-1,-2.868082E-2,1.4817171E-1,5.7320304E-2,1.3871783E-1,-1.3775471E-1,3.9144106E-2,-4.483841E-1,-1.6369896E-1,3.0002105E-1,-4.838291E-2,-4.522713E-1,1.4057863E-2,-4.7351927E-2,5.593424E-3,-4.9813353E-2,6.8768747E-3,3.7964337E-2,-7.601113E-3,2.2477439E-2,2.8857399E-2,-2.6447361E-2],"categories":[],"categories_nodes":[],"categories_segments":[],"categories_sizes":[],"default_left":[0,0,0,0,0,0,0,0,0,0,0,0,0,0,0,0,0,0,0,0,0,0,0],"id":47,"left_children":[1,3,5,7,-1,9,11,-1,13,15,17,19,21,-1,-1,-1,-1,-1,-1,-1,-1,-1,-1],"loss_changes":[5.6150184E0,2.0625186E0,4.1101165E0,2.1723151E0,0E0,4.385384E0,3.805526E0,0E0,1.3996129E0,7.3540697E0,4.2479563E0,5.5980186E0,2.6740413E0,0E0,0E0,0E0,0E0,0E0,0E0,0E0,0E0,0E0,0E0],"parents":[2147483647,0,0,1,1,2,2,3,3,5,5,6,6,8,8,9,9,10,10,11,11,12,12],"right_children":[2,4,6,8,-1,10,12,-1,14,16,18,20,22,-1,-1,-1,-1,-1,-1,-1,-1,-1,-1],"split_conditions":[-1.3947204E0,-1.7212187E-1,-1.4362192E-1,-5.915496E-1,5.7320304E-2,4.8303896E-1,5.507169E-1,3.9144106E-2,4.4715557E-1,-4.4687057E-1,-3.3134726E-1,1.3202245E0,4.283884E-1,1.4057863E-2,-4.7351927E-2,5.593424E-3,-4.9813353E-2,6.8768747E-3,3.7964337E-2,-7.601113E-3,2.2477439E-2,2.8857399E-2,-2.6447361E-2],"split_indices":[14,0,18,3,0,27,3,0,22,18,18,1,28,0,0,0,0,0,0,0,0,0,0],"split_type":[0,0,0,0,0,0,0,0,0,0,0,0,0,0,0,0,0,0,0,0,0,0,0],"sum_hessian":[2.314895E2,8.433007E0,2.230565E2,3.8100631E0,4.622944E0,8.789298E1,1.3516353E2,1.6946694E0,2.1153939E0,3.056807E1,5.732491E1,1.0615326E2,2.901026E1,1.0359485E0,1.0794454E0,2.3616875E1,6.951194E0,4.3303898E1,1.4021012E1,8.844006E1,1.7713196E1,1.5585606E0,2.7451698E1],"tree_param":{"num_deleted":"0","num_feature":"34","num_nodes":"23","size_leaf_vector":"1"}},{"base_weights":[3.3594084E-3,4.5291975E-1,-4.8409346E-2,2.158918E-1,7.087717E-1,1.3653525E-2,-3.4922135E-1,6.1523044E-1,-4.290452E-1,1.3860968E-1,8.222998E-1,1.3042104E-1,-1.6360715E-1,3.3090726E-1,-4.675607E-1,-1.0785505E-2,4.3677084E-2,4.5089065E-3,-5.498442E-2,3.0230582E-2,-2.0188969E-2,2.0091405E-2,5.4352384E-2,3.0340645E-3,3.1607892E-2,-5.649467E-3,-3.4967564E-2,3.0717043E-2,-2.4396358E-2,-3.6420498E-2,-1.3471789E-2],"categories":[],"categories_nodes":[],"categories_segments":[],"categories_sizes":[],"default_left":[0,0,0,0,0,0,0,0,0,0,0,0,0,0,0,0,0,0,0,0,0,0,0,0,0,0,0,0,0,0,0],"id":48,"left_children":[1,3,5,7,9,11,13,15,17,19,21,23,25,27,29,-1,-1,-1,-1,-1,-1,-1,-1,-1,-1,-1,-1,-1,-1,-1,-1],"loss_changes":[5.412524E0,1.3033271E0,3.8993278E0,3.8448915E0,6.0521126E-1,3.6206062E0,3.0293646E0,2.1197336E0,2.1557546E0,1.0144475E0,5.7208014E-1,3.6493657E0,1.8057332E0,1.6641791E0,1.3974257E0,0E0,0E0,0E0,0E0,0E0,0E0,0E0,0E0,0E0,0E0,0E0,0E0,0E0,0E0,0E0,0E0],"parents":[2147483647,0,0,1,1,2,2,3,3,4,4,5,5,6,6,7,7,8,8,9,9,10,10,11,11,12,12,13,13,14,14],"right_children":[2,4,6,8,10,12,14,16,18,20,22,24,26,28,30,-1,-1,-1,-1,-1,-1,-1,-1,-1,-1,-1,-1,-1,-1,-1,-1],"split_conditions":[-9.643181E-1,4.8303896E-1,7.673536E-1,-1.1688911E0,-1.4504791E0,6.87256E-1,4.283884E-1,-1.4932576E0,9.774912E-2,-1.5360168E0,-1.4724947E0,1.2608054E0,1.3631574E0,2.067174E0,1.2006271E0,-1.0785505E-2,4.3677084E-2,4.5089065E-3,-5.498442E-2,3.0230582E-2,-2.0188969E-2,2.0091405E-2,5.4352384E-2,3.0340645E-3,3.1607892E-2,-5.649467E-3,-3.4967564E-2,3.0717043E-2,-2.4396358E-2,-3.6420498E-2,-1.3471789E-2],"split_indices":[7,27,3,18,18,7,28,15,3,7,7,0,0,3,3,0,0,0,0,0,0,0,0,0,0,0,0,0,0,0,0],"split_type":[0,0,0,0,0,0,0,0,0,0,0,0,0,0,0,0,0,0,0,0,0,0,0,0,0,0,0,0,0,0,0],"sum_hessian":[2.306228E2,2.3014631E1,2.0760817E2,1.2903917E1,1.0110714E1,1.7289207E2,3.4716103E1,7.997812E0,4.9061055E0,2.0476935E0,8.06302E0,1.04390686E2,6.850139E1,4.8789854E0,2.9837116E1,1.935756E0,6.062056E0,3.2530637E0,1.6530418E0,1.0396998E0,1.0079937E0,4.0880966E0,3.9749236E0,9.263558E1,1.1755099E1,6.3694363E1,4.8070254E0,3.8099396E0,1.0690457E0,1.172439E1,1.8112726E1],"tree_param":{"num_deleted":"0","num_feature":"34","num_nodes":"31","size_leaf_vector":"1"}},{"base_weights":[3.2988705E-3,7.3545545E-1,-2.6930911E-2,4.6776157E-2,-1.3626604E-2,1.1532198E-2,-4.8836997E-1,5.373528E-1,-1.7206639E-2,5.7477936E-2,-7.7044815E-1,-2.4009794E-2,3.7366938E-2,2.219568E-2,-2.6747568E-3,2.712161E-2,-2.125152E-2,-4.4755608E-2,1.0894236E-2],"categories":[],"categories_nodes":[],"categories_segments":[],"categories_sizes":[],"default_left":[0,0,0,0,0,0,0,0,0,0,0,0,0,0,0,0,0,0,0],"id":49,"left_children":[1,3,5,-1,-1,7,9,11,13,15,17,-1,-1,-1,-1,-1,-1,-1,-1],"loss_changes":[5.126486E0,2.1070628E0,3.955421E0,0E0,0E0,3.12822E0,2.6842613E0,2.6509461E0,3.314707E0,1.8152186E0,1.5963688E0,0E0,0E0,0E0,0E0,0E0,0E0,0E0,0E0],"parents":[2147483647,0,0,1,1,2,2,5,5,6,6,7,7,8,8,9,9,10,10],"right_children":[2,4,6,-1,-1,8,10,12,14,16,18,-1,-1,-1,-1,-1,-1,-1,-1],"split_conditions":[-1.3947204E0,1.4250022E0,1.7335831E0,4.6776157E-2,-1.3626604E-2,-1.1399065E0,-5.6057507E-1,-1.267167E0,-1.278993E0,3.2582037E-2,2.1119633E0,-2.4009794E-2,3.7366938E-2,2.219568E-2,-2.6747568E-3,2.712161E-2,-2.125152E-2,-4.4755608E-2,1.0894236E-2],"split_indices":[14,4,24,0,0,17,4,6,4,0,1,0,0,0,0,0,0,0,0],"split_type":[0,0,0,0,0,0,0,0,0,0,0,0,0,0,0,0,0,0,0],"sum_hessian":[2.2972762E2,8.184027E0,2.215436E2,6.8886433E0,1.2953833E0,2.0539774E2,1.6145857E1,9.727141E0,1.956706E2,5.7722473E0,1.037361E1,1.4438307E0,8.28331E0,1.3455668E1,1.8221494E2,2.8168879E0,2.9553595E0,9.295444E0,1.0781659E0],"tree_param":{"num_deleted":"0","num_feature":"34","num_nodes":"19","size_leaf_vector":"1"}},{"base_weights":[3.3086466E-3,4.3286675E-1,-4.540608E-2,4.4652957E-2,3.0482104E-1,2.7677307E-1,-9.777839E-2,-2.6857808E-2,3.9168546E-1,-1.6755381E-1,4.555671E-1,6.0056252E-3,-3.3206114E-1,2.7970646E-2,-1.0387578E-2,1.4551912E-2,-3.237612E-2,-6.6382065E-3,3.2371517E-2,1.703757E-2,-3.6151544E-3,2.9807666E-2,-1.8740272E-2],"categories":[],"categories_nodes":[],"categories_segments":[],"categories_sizes":[],"default_left":[0,0,0,0,0,0,0,0,0,0,0,0,0,0,0,0,0,0,0,0,0,0,0],"id":50,"left_children":[1,3,5,-1,7,9,11,-1,13,15,